576 576
1 1.000000 0.770773 0.767145 0.679951 0.398314 0.750338 0.721114 0.514601 0.489370 0.510173 0.731110 0.801290 0.712788 0.223429 0.888752 0.552525 0.703954 0.765443 0.689969 0.849671 0.766235 0.809132 0.788462 0.849545 0.848779 0.870231 0.837609 0.679138 0.773316 0.804105 0.932539 0.789037 0.680185 0.650121 0.925200 0.776312 0.795010 0.926405 0.793727 0.754950 0.817730 0.829599 0.831997 0.733207 0.828145 0.540838 0.756305 0.710706 0.860130 0.328390 0.666902 0.722468 0.788407 0.789374 0.783781 0.596765 0.764078 0.671821 0.585486 0.681127 0.291852 0.830481 0.631741 0.793847 0.821966 0.839043 0.839996 0.766067 0.678569 0.824078 0.792840 0.843541 0.731740 0.698768 0.719329 0.415258 0.716373 0.828021 0.485384 0.770134 0.673128 0.274182 0.841385 0.704472 0.689426 0.817822 0.786198 0.781422 0.762808 0.730919 0.562507 0.834450 0.792729 0.803686 0.765786 0.857136 0.738255 0.600143 0.759876 0.670500 0.722176 0.673498 0.616991 0.694138 0.679144 0.741140 0.551788 0.880187 0.762722 0.717206 0.793421 0.612366 0.725347 0.678188 0.894081 0.833688 0.818142 0.674378 0.773114 0.707882 0.657885 0.825030 0.785852 0.770110 0.676929 0.561988 0.826890 0.764002 0.837844 0.743417 0.822602 0.755734 0.801743 0.862297 0.725027 0.780199 0.737918 0.710319 0.743742 0.676022 0.779534 0.886050 0.755460 0.788238 0.714318 0.471174 0.736306 0.744150 0.815670 0.687855 0.741472 0.774949 0.845192 0.515702 0.728721 0.826639 0.696846 0.716981 0.711573 0.718056 0.906348 0.879936 0.635208 0.753212 0.750509 0.865872 0.814165 0.815759 0.776242 0.792234 0.768854 0.874867 0.541714 0.696263 0.770430 0.898869 0.780852 0.446985 0.800157 0.815047 0.680565 0.753466 0.447259 0.661469 0.821536 0.923327 0.594005 0.753700 0.859445 0.829161 0.647543 0.911456 0.834422 0.504234 0.780536 0.813582 0.628395 0.742375 0.819566 0.705027 0.727897 0.723389 0.800973 0.716040 0.860236 0.831118 0.792613 0.775106 0.723190 0.926037 0.723204 0.743243 0.878433 0.750217 0.832799 0.758405 0.819743 0.892796 0.767682 0.811486 0.476833 0.790775 0.555571 0.893154 0.738097 0.696427 0.668640 0.835491 0.158796 0.700383 0.720071 0.691870 0.699524 0.786925 0.721280 0.747204 0.878287 0.735219 0.881492 0.645950 0.702183 0.776257 0.709815 0.736574 0.805985 0.830539 0.801602 0.283575 0.661368 0.728472 0.788381 0.734150 0.697980 0.722809 0.666111 0.784347 0.860451 0.764153 0.558077 0.798733 0.809839 0.553103 0.817253 0.872045 0.794985 0.864613 0.503981 0.783541 0.589918 0.528263 0.782180 0.722582 0.775655 0.677043 0.737338 0.771788 0.825489 0.724349 0.824068 0.623737 0.730187 0.878642 0.843011 0.823564 0.780314 0.930758 0.528969 0.721471 0.728228 0.866637 0.678673 0.770852 0.744963 0.722295 0.695270 0.882079 0.675762 0.726551 0.748069 0.800140 0.528566 0.812569 0.792825 0.624140 0.758888 0.810621 0.872823 0.667401 0.653102 0.801867 0.837728 0.726399 0.810767 0.758198 0.893008 0.796430 0.720043 0.763080 0.790756 0.750778 0.769390 0.809833 0.820125 0.850614 0.759986 0.715200 0.821425 0.776995 0.688718 0.863421 0.765405 0.710658 0.534753 0.705796 0.685019 0.648370 0.550599 0.837411 0.863942 0.814871 0.738914 0.808113 0.473576 0.793938 0.806204 0.916477 0.746922 0.482863 0.734647 0.541402 0.701722 0.780072 0.776359 0.712759 0.662845 0.824756 0.764666 0.613646 0.825699 0.721537 0.719446 0.817267 0.806142 0.821882 0.765793 0.838264 0.783562 0.658831 0.693162 0.816880 0.330588 0.361229 0.694884 0.768684 0.794474 0.726853 0.674182 0.728521 0.732526 0.717816 0.782556 0.674976 0.645192 0.660645 0.749601 0.695172 0.929928 0.832697 0.827214 0.805383 0.810690 0.737267 0.528222 0.827016 0.813419 0.573550 0.814945 0.759260 0.646826 0.803510 0.727705 0.800087 0.903583 0.795838 0.813373 0.758155 0.833676 0.639144 0.736167 0.431531 0.848142 0.768764 0.619351 0.752073 0.742144 0.525963 0.706770 0.943485 0.624505 0.812537 0.731186 0.723888 0.715866 0.780692 0.845061 0.749147 0.296642 0.822108 0.727763 0.781745 0.446817 0.830486 0.683199 0.732126 0.713051 0.497503 0.863849 0.798795 0.632488 0.778652 0.801103 0.736265 0.796024 0.779458 0.832545 0.273375 0.749761 0.736696 0.752900 0.763997 0.647759 0.738642 0.679493 0.497601 0.761974 0.792053 0.781028 0.775554 0.814125 0.789815 0.877505 0.608156 0.839969 0.842706 0.707378 0.674533 0.613758 0.753271 0.565305 0.816366 0.838624 0.761305 0.746801 0.824650 0.704733 0.848370 0.783064 0.822068 0.880432 0.920597 0.749867 0.790665 0.767545 0.675209 0.518816 0.687153 0.509098 0.688681 0.788330 0.770010 0.754912 0.833962 0.839555 0.858392 0.288899 0.803901 0.755766 0.730123 0.836049 0.894320 0.727716 0.784203 0.566129 0.889726 0.862464 0.705524 0.806139 0.737740 0.687057 0.797138 0.806687 0.638812 0.733949 0.669144 0.713115 0.824334 0.905567 0.836157 0.653752 0.667052 0.678474 0.820227 0.334070 0.857992 0.710645 0.694567 0.648795 0.733166 0.724529 0.715736 0.770833 0.657155 0.733068 0.537725 0.660555 0.528683 0.727685 0.592389 0.726461 0.812193 0.837328 0.814676 0.864351 0.720720 0.773927 0.817595 0.813035 0.798258 0.903389 0.827376 0.745724 0.771749 0.772294 0.731876 0.743832 0.810300 0.786688 0.798299 0.786098 0.709869 0.822368 0.670383 0.741830 0.835741 0.684068 0.703897 0.748687 0.831141 0.909550 0.781470 0.732240 0.649227 0.795401 0.705371 0.651240 0.747219 
-1 0.770773 1.000000 0.635286 0.953847 0.321498 0.859563 0.944338 0.540347 0.370724 0.510115 0.804521 0.609270 0.477960 0.171214 0.704121 0.626928 0.712316 0.832137 0.790850 0.928987 0.743450 0.730783 0.553177 0.826456 0.599815 0.759268 0.700118 0.920190 0.555808 0.802897 0.777382 0.717327 0.934102 0.810822 0.768306 0.826396 0.670540 0.786601 0.921313 0.574418 0.764461 0.706200 0.811825 0.435695 0.732190 0.416395 0.822658 0.964194 0.859910 0.469421 0.899924 0.942850 0.956113 0.508734 0.607564 0.921480 0.555698 0.666101 0.464474 0.839037 0.507290 0.757079 0.836723 0.857719 0.801109 0.949165 0.878632 0.670677 0.944977 0.847792 0.896611 0.857110 0.534257 0.753563 0.967331 0.792546 0.804645 0.910121 0.580372 0.965439 0.889316 0.500679 0.863978 0.972546 0.600547 0.909362 0.622433 0.922497 0.549250 0.962070 0.874611 0.851245 0.746995 0.726163 0.838493 0.756541 0.965991 0.923621 0.909509 0.653549 0.625538 0.808129 0.810057 0.972774 0.792869 0.854500 0.733775 0.854675 0.956396 0.913036 0.770946 0.466735 0.962777 0.874256 0.729461 0.658498 0.823568 0.828317 0.954206 0.921372 0.563660 0.890793 0.933190 0.636233 0.868050 0.634163 0.832269 0.919599 0.869592 0.722342 0.748178 0.660308 0.731515 0.833800 0.930777 0.882332 0.948082 0.953563 0.833019 0.741612 0.767888 0.869407 0.936634 0.732910 0.726495 0.717500 0.796281 0.739496 0.634617 0.952200 0.782051 0.869394 0.581668 0.493784 0.507377 0.626105 0.910033 0.881071 0.958724 0.393982 0.833714 0.811569 0.721529 0.967040 0.807269 0.835568 0.870975 0.846117 0.875445 0.895504 0.835194 0.826663 0.707725 0.839448 0.982421 0.653688 0.837044 0.405197 0.671613 0.713793 0.842055 0.878369 0.811317 0.879631 0.817868 0.632291 0.378173 0.697152 0.833070 0.828671 0.866331 0.780522 0.736115 0.388043 0.853621 0.703707 0.884261 0.911536 0.838467 0.720803 0.870045 0.781658 0.935165 0.951489 0.749725 0.941011 0.473249 0.607996 0.947112 0.675644 0.982504 0.743609 0.585619 0.800740 0.767976 0.516466 0.867227 0.878636 0.802220 0.813792 0.447585 0.587421 0.610962 0.656394 0.940450 0.935530 0.868565 0.779172 0.099116 0.810880 0.694419 0.554931 0.955437 0.847294 0.968368 0.663518 0.593559 0.658745 0.683041 0.867264 0.970294 0.931541 0.828625 0.685714 0.795163 0.518722 0.723775 0.259848 0.595229 0.923674 0.757313 0.853429 0.944722 0.954246 0.578231 0.933181 0.944964 0.949891 0.541319 0.492557 0.708499 0.603735 0.941058 0.722945 0.854705 0.815813 0.567973 0.760740 0.868555 0.624218 0.599313 0.948206 0.855119 0.906393 0.596447 0.839227 0.908168 0.946743 0.739915 0.758479 0.794582 0.734925 0.775513 0.677193 0.824855 0.759769 0.433976 0.705134 0.935952 0.887633 0.903913 0.896034 0.662725 0.767183 0.629297 0.778717 0.706284 0.840240 0.586100 0.669922 0.544755 0.864857 0.889640 0.611035 0.798300 0.869507 0.668236 0.851151 0.685615 0.820744 0.928462 0.854873 0.850250 0.885820 0.737290 0.933158 0.914977 0.717018 0.868009 0.551759 0.814010 0.948411 0.946160 0.590154 0.916599 0.810832 0.872703 0.595181 0.790933 0.903907 0.618431 0.944093 0.484162 0.658686 0.958365 0.608984 0.589305 0.830599 0.664539 0.616105 0.891663 0.949934 0.812860 0.813848 0.695247 0.723547 0.853747 0.652357 0.951452 0.729207 0.803905 0.817822 0.897743 0.946962 0.791497 0.620471 0.798281 0.464079 0.689948 0.587319 0.593393 0.641988 0.643749 0.606061 0.733874 0.914031 0.836559 0.945731 0.926703 0.791499 0.235350 0.456627 0.926636 0.920715 0.816326 0.459173 0.930530 0.918611 0.654685 0.726786 0.910964 0.949103 0.801144 0.803299 0.925045 0.914952 0.904199 0.704633 0.645940 0.883748 0.892807 0.647510 0.656983 0.899542 0.737225 0.573110 0.870322 0.896016 0.894295 0.717135 0.882409 0.725416 0.834088 0.838372 0.718019 0.803388 0.843840 0.897991 0.509660 0.373140 0.844454 0.889809 0.592700 0.888204 0.834621 0.499462 0.859917 0.822209 0.877016 0.916745 0.755922 0.946037 0.859784 0.945937 0.653441 0.625879 0.511395 0.727355 0.764911 0.869647 0.661601 0.934778 0.932548 0.843347 0.825682 0.572255 0.648133 0.798644 0.923323 0.774265 0.664863 0.958246 0.902726 0.744950 0.924450 0.171955 0.933056 0.902265 0.936692 0.934805 0.935331 0.846526 0.847808 0.458395 0.902674 0.546437 0.702720 0.942503 0.519225 0.513212 0.753521 0.901919 0.819654 0.947398 0.632426 0.885466 0.929696 0.912015 0.587970 0.671006 0.804478 0.889605 0.898259 0.713126 0.864342 0.790146 0.844175 0.861056 0.825539 0.749862 0.685524 0.894071 0.964555 0.888721 0.545612 0.736463 0.534698 0.461167 0.957023 0.478246 0.924072 0.920406 0.943007 0.755267 0.502047 0.591951 0.874134 0.946195 0.588327 0.729435 0.901056 0.941254 0.698887 0.847833 0.909558 0.734052 0.726072 0.855535 0.865631 0.651338 0.730194 0.816536 0.694910 0.897174 0.937017 0.815009 0.638823 0.705264 0.641294 0.564221 0.967458 0.891377 0.475220 0.702280 0.849718 0.948848 0.929285 0.905706 0.886480 0.882695 0.886576 0.757003 0.802090 0.645026 0.798027 0.621752 0.832990 0.681197 0.783594 0.732505 0.718656 0.859587 0.673152 0.861097 0.967348 0.590125 0.502908 0.854775 0.757179 0.639850 0.953207 0.940570 0.660334 0.975813 0.926541 0.801451 0.928788 0.706251 0.651701 0.729432 0.731989 0.576712 0.930463 0.920695 0.878589 0.903415 0.918749 0.855051 0.831962 0.891545 0.886248 0.802131 0.948292 0.908146 0.672202 0.869895 
1 0.767145 0.635286 1.000000 0.617505 0.314383 0.827255 0.592016 0.594121 0.367458 0.606214 0.702208 0.893360 0.721306 0.187024 0.823920 0.624936 0.451738 0.813780 0.490717 0.680345 0.577094 0.715287 0.829689 0.746327 0.642556 0.760665 0.811517 0.688041 0.722377 0.772875 0.645051 0.698971 0.703369 0.722866 0.777935 0.677562 0.874191 0.684364 0.568095 0.466701 0.806489 0.810947 0.725237 0.550789 0.935048 0.458479 0.846709 0.613419 0.680675 0.504140 0.713416 0.724957 0.732620 0.603774 0.610550 0.612896 0.628212 0.380709 0.537345 0.496182 0.421751 0.862314 0.607565 0.753726 0.808715 0.716177 0.637712 0.599790 0.699601 0.771948 0.703863 0.772810 0.696296 0.650319 0.585808 0.344179 0.643555 0.651065 0.505124 0.745697 0.740055 0.385366 0.701057 0.641275 0.599361 0.693311 0.523061 0.639730 0.639224 0.697742 0.643555 0.768071 0.492623 0.759140 0.813831 0.728983 0.627978 0.592356 0.694046 0.407162 0.748152 0.810114 0.703329 0.636448 0.643558 0.701089 0.564643 0.784679 0.618622 0.573363 0.735748 0.531345 0.581614 0.678156 0.809472 0.739208 0.810016 0.698404 0.734314 0.731845 0.423854 0.681798 0.664909 0.665851 0.697276 0.362327 0.641794 0.637053 0.652125 0.613435 0.859726 0.833299 0.695669 0.637212 0.744412 0.696989 0.651361 0.636558 0.773940 0.553477 0.758173 0.656493 0.683192 0.791000 0.672784 0.546669 0.512459 0.598377 0.703364 0.654057 0.548247 0.843534 0.739202 0.405488 0.708835 0.565807 0.723970 0.707718 0.654920 0.575767 0.741449 0.603261 0.458784 0.698301 0.760075 0.756934 0.788044 0.860398 0.813511 0.762040 0.762217 0.804069 0.520097 0.481972 0.628621 0.779809 0.726810 0.246700 0.701180 0.791819 0.718912 0.698896 0.355154 0.695297 0.864361 0.849628 0.472004 0.572908 0.721557 0.732442 0.764807 0.690808 0.942950 0.495936 0.695193 0.648364 0.715391 0.792768 0.637720 0.660250 0.699076 0.712674 0.720151 0.715757 0.579987 0.779935 0.644657 0.701253 0.622781 0.791923 0.649081 0.510123 0.664047 0.631893 0.673893 0.604486 0.651904 0.790116 0.676129 0.755001 0.465221 0.683617 0.650193 0.681433 0.732572 0.569166 0.647599 0.735894 0.144934 0.524088 0.741402 0.464853 0.621810 0.817438 0.611809 0.799515 0.761475 0.639719 0.896347 0.726747 0.631401 0.651722 0.864269 0.719687 0.649692 0.826376 0.835563 0.214833 0.551472 0.670722 0.802997 0.798549 0.680028 0.555834 0.659492 0.659415 0.699175 0.710695 0.652055 0.684504 0.846002 0.673082 0.689939 0.674963 0.817990 0.711435 0.573438 0.611285 0.660664 0.644966 0.551242 0.660790 0.810162 0.471100 0.695656 0.522174 0.784431 0.667340 0.772510 0.668960 0.747186 0.738989 0.782539 0.847199 0.704287 0.792990 0.401827 0.503216 0.747037 0.632509 0.525306 0.629509 0.552326 0.548766 0.668136 0.803740 0.584480 0.634095 0.601746 0.773978 0.631186 0.732746 0.543464 0.541111 0.863142 0.607412 0.838315 0.711253 0.631376 0.691587 0.667431 0.555773 0.841339 0.789636 0.683530 0.704518 0.736586 0.897115 0.601843 0.799488 0.791151 0.696724 0.728191 0.771192 0.632886 0.735297 0.668904 0.884391 0.493149 0.693965 0.722010 0.644039 0.553447 0.749342 0.674769 0.471781 0.545235 0.803892 0.766071 0.834056 0.781727 0.695644 0.327894 0.795492 0.678483 0.646558 0.774786 0.602674 0.728890 0.329155 0.641968 0.835550 0.524880 0.699830 0.633946 0.858771 0.621769 0.533992 0.577430 0.639703 0.701146 0.757713 0.463376 0.669378 0.690598 0.709904 0.879573 0.671713 0.649983 0.612725 0.272042 0.446312 0.591705 0.598842 0.616893 0.491085 0.653226 0.559194 0.700897 0.459999 0.674528 0.667596 0.703009 0.638193 0.720718 0.742538 0.776366 0.550618 0.630274 0.713921 0.611448 0.764972 0.572558 0.824710 0.900551 0.565488 0.664062 0.617028 0.714647 0.771372 0.730005 0.803385 0.690136 0.639409 0.867017 0.612531 0.802054 0.711071 0.919078 0.323466 0.651465 0.640630 0.544142 0.761160 0.642802 0.480446 0.671595 0.744339 0.691410 0.750238 0.509967 0.708672 0.511707 0.741750 0.680673 0.633961 0.417042 0.713365 0.513790 0.570009 0.541875 0.707033 0.648172 0.821586 0.684074 0.519236 0.702451 0.911287 0.664730 0.768996 0.679726 0.645535 0.714650 0.835909 0.824657 0.169766 0.734508 0.514026 0.605033 0.707921 0.655463 0.842408 0.510910 0.470802 0.634312 0.765765 0.712983 0.677178 0.565703 0.533487 0.813323 0.645797 0.593517 0.675018 0.796245 0.739726 0.596570 0.576214 0.638007 0.631026 0.632510 0.636472 0.627180 0.797696 0.783695 0.622832 0.572224 0.827489 0.733895 0.655261 0.637850 0.599384 0.693421 0.509730 0.534823 0.512989 0.405678 0.457530 0.757288 0.780389 0.609935 0.593516 0.637344 0.760602 0.414484 0.765880 0.828823 0.669003 0.732996 0.789424 0.719978 0.595972 0.330057 0.722586 0.585113 0.669983 0.691565 0.728122 0.633193 0.731865 0.632844 0.689610 0.681458 0.729088 0.698745 0.828960 0.710048 0.744452 0.642638 0.619302 0.561308 0.688902 0.508371 0.859225 0.785991 0.706137 0.669713 0.739157 0.633400 0.764405 0.771171 0.607710 0.468852 0.598722 0.543676 0.634418 0.645589 0.470662 0.583459 0.577671 0.579552 0.737920 0.598145 0.575657 0.613417 0.718881 0.632934 0.741680 0.638742 0.750415 0.686871 0.640522 0.655788 0.646942 0.599938 0.704925 0.557600 0.730982 0.531811 0.731175 0.739593 0.589553 0.565746 0.790115 0.667665 0.717700 0.603406 0.614825 0.795935 0.622634 0.665793 0.759167 0.719531 0.647889 0.596315 0.569524 
-1 0.679951 0.953847 0.617505 1.000000 0.281080 0.866451 0.954784 0.556090 0.405354 0.456745 0.822519 0.603508 0.396346 0.204697 0.669289 0.614031 0.730920 0.834628 0.792457 0.912900 0.766081 0.680358 0.542249 0.801892 0.575684 0.748952 0.685572 0.956004 0.515534 0.785515 0.669861 0.732152 0.963581 0.814664 0.691538 0.792083 0.660573 0.693271 0.879998 0.491982 0.791320 0.679958 0.744465 0.422364 0.713841 0.365850 0.816096 0.932801 0.833163 0.463783 0.916843 0.929405 0.930291 0.494715 0.613926 0.933762 0.586452 0.621834 0.399298 0.889316 0.504627 0.743422 0.787311 0.855836 0.775970 0.920679 0.791718 0.598720 0.946571 0.876448 0.873028 0.875514 0.511268 0.846883 0.953575 0.788322 0.765533 0.888761 0.604559 0.959037 0.909317 0.503740 0.806646 0.969376 0.608160 0.904151 0.565081 0.941341 0.540530 0.971366 0.893043 0.874481 0.709152 0.653458 0.837669 0.780869 0.970986 0.939715 0.915732 0.681553 0.587306 0.846339 0.837592 0.982644 0.768329 0.867878 0.741557 0.856545 0.945563 0.930748 0.817606 0.507514 0.971022 0.885202 0.716259 0.584157 0.814695 0.820429 0.943698 0.952111 0.558590 0.880298 0.956037 0.560252 0.899453 0.642612 0.849940 0.946436 0.859953 0.620273 0.780874 0.616336 0.770791 0.774718 0.910284 0.928922 0.945732 0.964582 0.815566 0.828705 0.701027 0.828151 0.960826 0.707905 0.811254 0.681610 0.742846 0.667683 0.571854 0.974888 0.817619 0.834019 0.538003 0.567996 0.511114 0.601257 0.923812 0.882383 0.987464 0.361719 0.789486 0.775671 0.801010 0.968225 0.779895 0.803911 0.886269 0.810146 0.871424 0.898027 0.828195 0.841051 0.672747 0.818839 0.954405 0.628221 0.796317 0.428940 0.655774 0.671170 0.843729 0.889434 0.808648 0.885143 0.798097 0.582105 0.384160 0.621749 0.803088 0.862272 0.902467 0.741819 0.725331 0.378904 0.803069 0.736971 0.918482 0.902425 0.802644 0.803998 0.845331 0.808754 0.870678 0.954430 0.712349 0.909121 0.459915 0.581961 0.983164 0.637350 0.971123 0.727608 0.523978 0.842602 0.779694 0.521062 0.874262 0.872401 0.716589 0.795385 0.507325 0.501906 0.600128 0.589469 0.921886 0.963985 0.896760 0.756200 0.106578 0.848299 0.713410 0.590858 0.937483 0.854046 0.973438 0.684836 0.574940 0.655760 0.642532 0.846580 0.982432 0.944623 0.849226 0.647249 0.835375 0.448890 0.703345 0.336294 0.660122 0.942522 0.723553 0.868330 0.965808 0.946329 0.565296 0.914393 0.886931 0.961941 0.610882 0.433599 0.733513 0.593022 0.905278 0.644003 0.852061 0.740029 0.557800 0.705388 0.910793 0.636895 0.530629 0.973845 0.826057 0.887861 0.557613 0.806225 0.885276 0.972000 0.645589 0.809077 0.814514 0.730498 0.796149 0.653335 0.764266 0.698697 0.490738 0.717455 0.934444 0.869093 0.910407 0.879868 0.638732 0.791396 0.558888 0.777764 0.774007 0.885926 0.573483 0.576611 0.530018 0.890415 0.858939 0.640622 0.785058 0.888632 0.644819 0.926100 0.669282 0.821899 0.854631 0.877826 0.869295 0.897276 0.639619 0.961279 0.914775 0.730299 0.901573 0.510306 0.855302 0.946026 0.910886 0.532083 0.933843 0.877421 0.870045 0.599090 0.840502 0.885792 0.515659 0.974230 0.481893 0.631823 0.982728 0.668752 0.536539 0.791694 0.649425 0.607966 0.927241 0.898256 0.784834 0.815339 0.626557 0.681539 0.865916 0.673521 0.962728 0.679014 0.823360 0.829827 0.823323 0.943016 0.812395 0.587975 0.778127 0.424543 0.628206 0.604958 0.640716 0.581743 0.550203 0.531604 0.798233 0.901485 0.837881 0.953058 0.953058 0.775465 0.234968 0.407503 0.940787 0.938586 0.802450 0.443280 0.965342 0.920759 0.676559 0.669343 0.889253 0.948273 0.826670 0.749445 0.958193 0.941225 0.839145 0.655244 0.626301 0.847556 0.878634 0.674753 0.767716 0.875698 0.716110 0.563182 0.794454 0.899246 0.892705 0.726115 0.892465 0.672468 0.818261 0.790811 0.712815 0.834214 0.794108 0.904611 0.465183 0.434214 0.794515 0.921877 0.636767 0.922205 0.873571 0.600542 0.806152 0.771552 0.849390 0.938750 0.781267 0.957651 0.863686 0.948042 0.669449 0.676783 0.504414 0.741842 0.791670 0.869439 0.684245 0.899431 0.947696 0.859476 0.741095 0.593482 0.613226 0.804204 0.937009 0.752914 0.628597 0.962263 0.946397 0.700371 0.909754 0.144216 0.918287 0.902428 0.934204 0.956718 0.955836 0.856929 0.900167 0.374031 0.921389 0.527097 0.608847 0.949892 0.475980 0.415217 0.673139 0.893869 0.746771 0.891748 0.585316 0.920033 0.954751 0.907796 0.580178 0.685381 0.771738 0.896733 0.913409 0.674304 0.899210 0.697269 0.836627 0.859748 0.795372 0.638919 0.741721 0.877476 0.959175 0.931709 0.543722 0.796806 0.625401 0.425240 0.941879 0.416079 0.915983 0.854630 0.908200 0.685050 0.502667 0.525113 0.873840 0.950800 0.558542 0.703959 0.931820 0.922331 0.613241 0.787894 0.850576 0.716023 0.731396 0.889359 0.844724 0.570617 0.663509 0.897522 0.628943 0.903395 0.973621 0.849942 0.581925 0.663973 0.622860 0.547552 0.970119 0.919960 0.471513 0.654193 0.886931 0.938162 0.954029 0.959665 0.930894 0.851240 0.901049 0.765403 0.745150 0.631875 0.742431 0.645034 0.794861 0.565136 0.806258 0.696176 0.693856 0.892862 0.567971 0.889801 0.960411 0.606193 0.469872 0.911833 0.695505 0.592885 0.962238 0.937620 0.583466 0.977526 0.939171 0.821454 0.902027 0.642385 0.617467 0.715684 0.689067 0.627382 0.938765 0.894286 0.868646 0.905399 0.924460 0.829573 0.828563 0.920045 0.860530 0.829891 0.948732 0.971112 0.719145 0.868900 
1 0.398314 0.321498 0.314383 0.281080 1.000000 0.238559 0.319813 0.202659 0.201738 0.098603 0.241186 0.300242 0.418541 0.138331 0.365298 0.291725 0.427348 0.247413 0.346204 0.440358 0.461990 0.252312 0.267734 0.255928 0.227431 0.258052 0.263618 0.350981 0.173221 0.266423 0.346399 0.518763 0.281416 0.181230 0.295909 0.529197 0.256354 0.360387 0.400575 0.649958 0.332867 0.369947 0.209876 0.302318 0.260514 0.824800 0.388017 0.364920 0.331852 0.126132 0.303942 0.378246 0.294531 0.277616 0.438984 0.256707 0.294290 0.516024 0.686400 0.329598 0.131692 0.256953 0.282340 0.472567 0.263111 0.273336 0.474329 0.392246 0.279992 0.278518 0.534107 0.371280 0.248561 0.293146 0.330078 0.173864 0.248898 0.340945 0.296005 0.307576 0.251432 0.106105 0.404019 0.286838 0.218630 0.477556 0.199999 0.361341 0.195280 0.270715 0.230779 0.363803 0.281945 0.227680 0.419336 0.317909 0.278891 0.282024 0.330347 0.332691 0.590915 0.257127 0.219210 0.287630 0.486011 0.527692 0.160330 0.348731 0.344000 0.302023 0.311633 0.317373 0.285666 0.302283 0.421732 0.276257 0.266725 0.377925 0.348301 0.251960 0.477692 0.309734 0.374632 0.185773 0.286275 0.415412 0.422846 0.355069 0.358296 0.327045 0.336835 0.483399 0.378023 0.326048 0.370387 0.301096 0.420726 0.405667 0.401012 0.286345 0.222459 0.309029 0.361115 0.235609 0.326210 0.197364 0.193281 0.726968 0.217890 0.238033 0.388977 0.291863 0.519779 0.396748 0.211111 0.296463 0.411575 0.502170 0.283087 0.283548 0.289335 0.285363 0.308188 0.337648 0.396504 0.426636 0.320393 0.402784 0.340672 0.335440 0.228814 0.415868 0.423438 0.471647 0.337176 0.420770 0.268707 0.230716 0.255375 0.467291 0.185198 0.503041 0.197428 0.247095 0.261019 0.418024 0.278286 0.596023 0.380688 0.342176 0.226289 0.318284 0.291928 0.284913 0.221524 0.358317 0.247643 0.398015 0.558835 0.296045 0.472515 0.283524 0.466836 0.261275 0.314961 0.313998 0.332386 0.195126 0.341009 0.292194 0.301804 0.341557 0.202179 0.426278 0.277367 0.385257 0.422061 0.379556 0.545530 0.287232 0.526199 0.329303 0.220442 0.388999 0.404694 0.261594 0.267862 0.478602 0.437359 0.283470 0.372521 0.285102 0.352304 0.328661 0.301448 0.346626 0.352088 0.417986 0.389763 0.300814 0.283198 0.369819 0.313001 0.651929 0.373421 0.432405 0.232595 0.218567 0.276256 0.253586 0.276491 0.265586 0.262098 0.313493 0.356256 0.421630 0.423123 0.262640 0.389612 0.515543 0.317768 0.403740 0.408430 0.241424 0.282423 0.519536 0.482607 0.639839 0.227264 0.259604 0.469608 0.271562 0.244472 0.328221 0.188021 0.468017 0.289248 0.381931 0.333260 0.474270 0.326146 0.282914 0.276556 0.209431 0.242524 0.373631 0.329566 0.515708 0.293775 0.326260 0.333696 0.529538 0.693184 0.508730 0.222628 0.481863 0.332023 0.395276 0.241540 0.319371 0.436514 0.409927 0.258849 0.224857 0.230056 0.334073 0.261892 0.271197 0.712930 0.565074 0.279669 0.469011 0.355194 0.436071 0.530243 0.356561 0.250860 0.287527 0.321309 0.170883 0.395443 0.292794 0.306560 0.284162 0.286270 0.271224 0.519576 0.219076 0.281315 0.268145 0.528383 0.291453 0.284892 0.157350 0.292308 0.338969 0.465139 0.281626 0.469845 0.261970 0.364089 0.417568 0.232392 0.269091 0.276303 0.296565 0.469187 0.225672 0.289478 0.214733 0.265488 0.261719 0.259216 0.386519 0.349744 0.215649 0.632286 0.290847 0.252645 0.516152 0.395238 0.218844 0.216078 0.290439 0.365157 0.412449 0.282457 0.266718 0.270601 0.273934 0.685565 0.399736 0.413689 0.340935 0.578391 0.269228 0.283894 0.421763 0.281571 0.510265 0.509407 0.261197 0.505802 0.595659 0.297990 0.279792 0.427054 0.236557 0.320501 0.548801 0.396785 0.298505 0.301699 0.327126 0.422903 0.754984 0.528651 0.316242 0.257999 0.299956 0.253893 0.211545 0.319915 0.242460 0.246721 0.477172 0.291404 0.273209 0.415149 0.368155 0.386536 0.433517 0.582185 0.301320 0.457296 0.261924 0.541345 0.404831 0.305521 0.313427 0.406337 0.377753 0.425123 0.364406 0.381750 0.314066 0.132067 0.366902 0.321903 0.307486 0.201818 0.383573 0.355420 0.243007 0.509040 0.280321 0.227179 0.310339 0.220227 0.367843 0.293154 0.380705 0.328685 0.421675 0.337801 0.680019 0.402095 0.342992 0.421509 0.326371 0.306641 0.354881 0.385917 0.278930 0.438997 0.206585 0.356020 0.326908 0.437868 0.207111 0.337801 0.271475 0.395028 0.271531 0.319220 0.349102 0.287881 0.466366 0.220723 0.419286 0.437784 0.302116 0.339837 0.211423 0.241645 0.252893 0.469439 0.316004 0.248332 0.277584 0.358480 0.290615 0.313641 0.307000 0.402911 0.395772 0.387229 0.574331 0.284509 0.220267 0.447710 0.287494 0.282131 0.584879 0.114609 0.211570 0.265755 0.375735 0.223632 0.483464 0.280421 0.313634 0.295081 0.443260 0.303792 0.205489 0.320751 0.479546 0.547741 0.217115 0.219961 0.284465 0.181703 0.334062 0.277786 0.326537 0.369336 0.248273 0.177377 0.249487 0.258116 0.340409 0.118630 0.339430 0.265468 0.309738 0.273854 0.255144 0.417408 0.377698 0.481093 0.413539 0.553480 0.298092 0.649497 0.279649 0.231103 0.272784 0.521461 0.529181 0.412893 0.430803 0.341830 0.257300 0.342554 0.302004 0.526063 0.306150 0.325816 0.313332 0.287884 0.419638 0.190315 0.362348 0.406326 0.263319 0.318397 0.205194 0.226373 0.211848 0.217263 0.410499 0.379444 0.358042 0.356059 0.449963 0.372954 0.259079 0.352634 0.341302 0.267785 0.219363 0.378738 0.315415 0.483845 0.368204 
-1 0.750338 0.859563 0.827255 0.866451 0.238559 1.000000 0.808271 0.631583 0.353104 0.655727 0.920682 0.809274 0.575092 0.174323 0.764768 0.665493 0.565188 0.982118 0.636938 0.818822 0.651706 0.858600 0.741107 0.848823 0.670375 0.832399 0.868983 0.869497 0.697073 0.935678 0.740100 0.667682 0.927504 0.949578 0.805967 0.717687 0.878059 0.747126 0.742080 0.450189 0.803592 0.841192 0.880807 0.504558 0.921227 0.341786 0.890645 0.827235 0.822055 0.522189 0.893606 0.876826 0.929720 0.553142 0.574060 0.863663 0.583171 0.465959 0.460909 0.683039 0.501122 0.937714 0.837804 0.771364 0.941016 0.919377 0.751366 0.698509 0.911528 0.879178 0.812159 0.824147 0.706708 0.788341 0.823743 0.630365 0.877227 0.831060 0.574349 0.921973 0.902830 0.493740 0.820881 0.856208 0.730951 0.811228 0.594781 0.841444 0.644890 0.921082 0.883921 0.887881 0.665467 0.838872 0.846585 0.788549 0.867042 0.820043 0.845441 0.528822 0.669811 0.913888 0.897019 0.896965 0.778641 0.751340 0.815046 0.844481 0.829731 0.818128 0.775150 0.498800 0.826167 0.912051 0.741190 0.772460 0.959259 0.853796 0.901492 0.947806 0.442299 0.822046 0.841120 0.752591 0.914309 0.474409 0.765131 0.794623 0.815688 0.727375 0.844232 0.761068 0.701938 0.791595 0.896318 0.868316 0.823064 0.819730 0.876548 0.713800 0.873244 0.830228 0.850955 0.898834 0.723712 0.656100 0.738977 0.596979 0.761506 0.921637 0.643785 0.966359 0.615707 0.430763 0.684443 0.610215 0.855343 0.790127 0.908337 0.452138 0.813554 0.751012 0.628110 0.893620 0.855791 0.839887 0.877281 0.929516 0.960695 0.927633 0.971660 0.851920 0.582065 0.638290 0.865218 0.663552 0.929717 0.338211 0.800490 0.801691 0.969157 0.805837 0.654945 0.940328 0.963105 0.691456 0.396946 0.575549 0.785552 0.811637 0.962634 0.746888 0.921627 0.453543 0.874349 0.681598 0.931799 0.900377 0.691758 0.730253 0.808694 0.872058 0.836609 0.932849 0.704363 0.913608 0.531156 0.772018 0.837623 0.739159 0.888252 0.603214 0.655436 0.735247 0.790425 0.538957 0.758851 0.863838 0.729971 0.916479 0.409908 0.662413 0.681558 0.640838 0.880284 0.837919 0.900561 0.710589 0.087502 0.725394 0.801740 0.536882 0.835348 0.951529 0.858362 0.796722 0.678641 0.643465 0.783834 0.891929 0.874898 0.833941 0.933135 0.648311 0.740042 0.615843 0.910689 0.242818 0.611367 0.906030 0.890554 0.964510 0.931171 0.797133 0.658074 0.794941 0.804551 0.922234 0.570065 0.526296 0.803268 0.624795 0.838096 0.766980 0.966432 0.778298 0.546138 0.620222 0.895544 0.663810 0.562039 0.857775 0.968322 0.680973 0.769329 0.641263 0.919908 0.845421 0.819372 0.738452 0.866128 0.799942 0.882864 0.878322 0.893305 0.783184 0.404591 0.588279 0.920282 0.785910 0.765341 0.749053 0.556682 0.613792 0.690330 0.772341 0.646993 0.760377 0.659754 0.773532 0.551663 0.796534 0.773556 0.712522 0.946749 0.774215 0.780717 0.865554 0.610126 0.737273 0.859453 0.697945 0.889549 0.884566 0.687077 0.885412 0.946100 0.878186 0.768296 0.735625 0.852280 0.889925 0.899941 0.674784 0.837626 0.834475 0.755488 0.820095 0.699058 0.872244 0.622108 0.893348 0.521952 0.860097 0.895135 0.537007 0.546269 0.948451 0.685897 0.804565 0.898727 0.855004 0.592652 0.953872 0.793372 0.724850 0.809708 0.680523 0.921878 0.582102 0.878101 0.967669 0.785134 0.887589 0.828747 0.832042 0.642888 0.473599 0.674837 0.555736 0.613341 0.780234 0.598068 0.695694 0.747366 0.841684 0.987899 0.887490 0.907324 0.763152 0.192075 0.390623 0.797762 0.776379 0.661211 0.473700 0.890077 0.739894 0.779053 0.572724 0.783899 0.875975 0.771407 0.695139 0.884324 0.909972 0.857981 0.696137 0.660149 0.798988 0.773642 0.794596 0.660345 0.941501 0.860232 0.501171 0.726615 0.767956 0.942840 0.749047 0.963986 0.870578 0.788298 0.841546 0.889498 0.702202 0.941649 0.919125 0.658264 0.315800 0.766282 0.784562 0.553200 0.884187 0.722327 0.507539 0.752470 0.794209 0.879270 0.879692 0.638665 0.886053 0.663121 0.895295 0.681179 0.629037 0.496050 0.712529 0.648575 0.787419 0.665131 0.892153 0.878846 0.967283 0.765377 0.577273 0.729547 0.956866 0.900721 0.877305 0.689621 0.855186 0.871488 0.849420 0.960751 0.118610 0.892750 0.713500 0.766058 0.896825 0.877360 0.933769 0.704345 0.445096 0.788990 0.671095 0.733354 0.876348 0.495483 0.526033 0.801214 0.892625 0.714578 0.887040 0.778078 0.860377 0.854434 0.734976 0.666945 0.642463 0.702396 0.783661 0.807697 0.890981 0.979081 0.742664 0.684826 0.925134 0.827177 0.724356 0.675340 0.785789 0.904805 0.754934 0.536731 0.617533 0.454517 0.408705 0.960193 0.639883 0.789978 0.821879 0.838011 0.731499 0.505997 0.740501 0.994781 0.884312 0.655424 0.725368 0.905343 0.826504 0.518962 0.809082 0.784642 0.872217 0.734056 0.792442 0.737847 0.786443 0.753711 0.811741 0.822487 0.921873 0.905775 0.875723 0.662199 0.851765 0.789821 0.645001 0.826348 0.835138 0.530353 0.853996 0.951775 0.897465 0.871355 0.941405 0.769400 0.896171 0.847000 0.760747 0.576273 0.663207 0.625130 0.665986 0.880027 0.623893 0.659929 0.608189 0.653373 0.827163 0.653177 0.831247 0.842194 0.654219 0.516966 0.878947 0.681428 0.685292 0.878740 0.817961 0.777186 0.859280 0.808569 0.806813 0.767036 0.847959 0.643410 0.888994 0.871910 0.556455 0.773786 0.918826 0.878627 0.842877 0.799041 0.800759 0.838209 0.793213 0.923058 0.926639 0.857113 0.868321 0.617662 0.693952 
1 0.721114 0.944338 0.592016 0.954784 0.319813 0.808271 1.000000 0.647009 0.400423 0.409129 0.754814 0.600560 0.415583 0.200168 0.662745 0.705633 0.733691 0.806763 0.882466 0.905567 0.758374 0.687622 0.507175 0.819401 0.603227 0.790878 0.675307 0.897116 0.537582 0.733013 0.717940 0.716577 0.931786 0.734479 0.734912 0.826477 0.661946 0.764256 0.916142 0.557361 0.758296 0.668215 0.725292 0.424495 0.694152 0.376883 0.767576 0.923436 0.891206 0.485282 0.820370 0.912631 0.931835 0.506295 0.662029 0.903206 0.607270 0.652489 0.388112 0.893432 0.508231 0.734467 0.802045 0.846539 0.781308 0.919763 0.766832 0.584774 0.880502 0.816683 0.873971 0.880533 0.531449 0.788798 0.928866 0.812126 0.774652 0.918997 0.650193 0.915805 0.888965 0.507204 0.841291 0.920066 0.558224 0.890273 0.661817 0.937109 0.608839 0.911548 0.829240 0.839137 0.784653 0.633578 0.762268 0.789136 0.963877 0.923890 0.967338 0.685439 0.557878 0.759864 0.695004 0.928945 0.763806 0.858611 0.601612 0.866938 0.979681 0.873079 0.777657 0.537543 0.937516 0.873242 0.761884 0.554933 0.783490 0.847977 0.946539 0.888522 0.575679 0.919621 0.930757 0.550156 0.807332 0.745527 0.866142 0.943990 0.818245 0.592476 0.736438 0.653139 0.764652 0.842849 0.864376 0.908794 0.907671 0.941554 0.735320 0.833539 0.656939 0.846455 0.966470 0.733920 0.795777 0.598654 0.807044 0.703956 0.565067 0.919849 0.811345 0.796940 0.561656 0.546738 0.502394 0.631725 0.907405 0.866019 0.935592 0.430568 0.758323 0.838836 0.773549 0.943527 0.695935 0.822778 0.852042 0.784355 0.841321 0.826030 0.789341 0.849101 0.772391 0.873788 0.963903 0.657230 0.787503 0.418319 0.644721 0.656484 0.791257 0.858257 0.796423 0.870546 0.746050 0.601302 0.410876 0.603628 0.841035 0.840515 0.829548 0.810167 0.704465 0.474699 0.857883 0.730983 0.844083 0.870423 0.854478 0.790919 0.784021 0.730214 0.843374 0.892363 0.772307 0.895746 0.481579 0.530720 0.961639 0.635557 0.962272 0.711402 0.522467 0.820235 0.808687 0.586719 0.924409 0.891085 0.742383 0.795611 0.487859 0.476789 0.674294 0.651143 0.878218 0.918982 0.816692 0.783257 0.111485 0.812977 0.663129 0.622529 0.887222 0.819335 0.970609 0.645843 0.575384 0.602043 0.639114 0.751209 0.947982 0.954450 0.796709 0.696957 0.813508 0.455272 0.716953 0.312584 0.695574 0.854222 0.767863 0.769339 0.888782 0.935149 0.620981 0.909953 0.929241 0.915973 0.570443 0.480464 0.685384 0.644307 0.921344 0.636371 0.825583 0.772619 0.601581 0.740951 0.839921 0.668345 0.597095 0.944522 0.758800 0.894945 0.601972 0.851951 0.911890 0.928421 0.644797 0.773730 0.743546 0.770438 0.767119 0.614593 0.720288 0.724034 0.494118 0.716924 0.921948 0.909655 0.862610 0.884662 0.658992 0.839182 0.542415 0.806107 0.746896 0.816968 0.641606 0.595873 0.560657 0.882957 0.891420 0.603402 0.705013 0.881820 0.668407 0.828892 0.648617 0.821370 0.902247 0.873533 0.799616 0.894805 0.689827 0.935314 0.840723 0.655735 0.919752 0.477550 0.837406 0.920724 0.860469 0.559906 0.902635 0.791617 0.875917 0.589552 0.822185 0.913389 0.549650 0.961830 0.523599 0.633716 0.935479 0.650956 0.602131 0.768579 0.679375 0.579145 0.850087 0.872587 0.816686 0.761414 0.663901 0.718461 0.852073 0.710055 0.930879 0.743409 0.791098 0.753851 0.844925 0.907848 0.776767 0.564204 0.818884 0.560190 0.721466 0.578032 0.633664 0.573717 0.566473 0.534667 0.775477 0.957779 0.795651 0.880508 0.885726 0.714275 0.242548 0.378381 0.924609 0.963604 0.855563 0.502427 0.866437 0.947336 0.647410 0.663652 0.871410 0.873492 0.786153 0.745359 0.891258 0.886251 0.858991 0.682517 0.634297 0.857030 0.890482 0.639226 0.701754 0.840828 0.668760 0.572276 0.844577 0.874285 0.829953 0.689971 0.865740 0.669677 0.820715 0.836723 0.683733 0.878487 0.770307 0.824656 0.450004 0.436641 0.809777 0.898499 0.605749 0.838982 0.855968 0.554208 0.788363 0.773013 0.783106 0.915422 0.767659 0.917141 0.885133 0.918960 0.699708 0.656775 0.499186 0.719631 0.747371 0.849015 0.717327 0.892575 0.893005 0.767257 0.725736 0.635592 0.653164 0.747356 0.852115 0.724540 0.555367 0.952979 0.942136 0.710551 0.895456 0.160381 0.865092 0.889344 0.928475 0.884938 0.900829 0.783606 0.896145 0.432686 0.950492 0.576862 0.612564 0.962565 0.531833 0.466045 0.705142 0.839238 0.837925 0.900250 0.561021 0.853837 0.922909 0.918058 0.665257 0.710291 0.757847 0.855578 0.884766 0.641223 0.845321 0.669287 0.843634 0.842619 0.821702 0.648940 0.728395 0.825271 0.974368 0.892052 0.594861 0.790322 0.626331 0.439312 0.909466 0.409105 0.934615 0.838511 0.936789 0.701732 0.510308 0.516574 0.831906 0.919203 0.565198 0.717834 0.833331 0.937986 0.717901 0.854693 0.877178 0.726274 0.662081 0.857312 0.874563 0.578636 0.741015 0.812770 0.654149 0.854710 0.957982 0.799200 0.611877 0.655655 0.680341 0.524739 0.953365 0.888776 0.486359 0.674484 0.838214 0.914118 0.888348 0.889744 0.896196 0.789553 0.878403 0.720849 0.807375 0.722076 0.782310 0.698194 0.716573 0.579778 0.776942 0.701557 0.769950 0.869848 0.636128 0.860039 0.932514 0.596274 0.491690 0.886815 0.685146 0.535095 0.907434 0.950466 0.573278 0.960980 0.943513 0.835361 0.915245 0.650755 0.710864 0.732484 0.682038 0.599134 0.944969 0.919945 0.795703 0.894358 0.909027 0.890747 0.816187 0.898193 0.840774 0.699286 0.955055 0.949655 0.666545 0.919285 
-1 0.514601 0.540347 0.594121 0.556090 0.202659 0.631583 0.647009 1.000000 0.223174 0.288645 0.523235 0.619685 0.368271 0.117521 0.482771 0.935999 0.335375 0.667736 0.653158 0.522858 0.376119 0.559717 0.459398 0.565661 0.427605 0.634449 0.621311 0.531493 0.466592 0.524900 0.491518 0.405915 0.653900 0.492041 0.546484 0.491015 0.652153 0.524649 0.510087 0.296535 0.570212 0.553366 0.472435 0.276981 0.674833 0.225558 0.627610 0.514956 0.649738 0.585902 0.461606 0.630851 0.627704 0.332339 0.430728 0.622810 0.444784 0.264760 0.256233 0.484945 0.504729 0.678914 0.586786 0.525727 0.706750 0.596301 0.381969 0.384151 0.543751 0.499965 0.539834 0.584585 0.513692 0.466369 0.495253 0.472898 0.583624 0.586570 0.773070 0.586628 0.719230 0.500433 0.526593 0.526632 0.393745 0.498815 0.495795 0.582844 0.575223 0.571311 0.588143 0.538506 0.495551 0.513975 0.452366 0.550357 0.608101 0.589532 0.708030 0.313762 0.423757 0.610406 0.398996 0.533975 0.550287 0.523568 0.286721 0.625842 0.628123 0.456061 0.507179 0.397287 0.491403 0.675984 0.608687 0.407880 0.644395 0.735083 0.650339 0.565404 0.299014 0.626885 0.527605 0.445715 0.538724 0.529650 0.546271 0.571900 0.436061 0.369260 0.555363 0.646697 0.498255 0.584157 0.536825 0.630091 0.500418 0.542248 0.480687 0.503477 0.484137 0.537336 0.659577 0.718823 0.532249 0.298776 0.509204 0.389844 0.485306 0.578849 0.406256 0.627989 0.389259 0.255156 0.524979 0.420884 0.617803 0.535299 0.553338 0.415952 0.440154 0.540023 0.388070 0.601477 0.433964 0.550057 0.605320 0.617970 0.669607 0.485189 0.603183 0.610958 0.722950 0.482463 0.580514 0.472590 0.597777 0.184847 0.561398 0.506370 0.581263 0.533777 0.387329 0.689159 0.600686 0.512110 0.286586 0.266344 0.522014 0.504156 0.643237 0.562982 0.676739 0.822849 0.704473 0.431046 0.627415 0.592950 0.496974 0.540133 0.442103 0.521111 0.499718 0.551406 0.503605 0.577903 0.375658 0.395019 0.568256 0.471777 0.613467 0.348474 0.371192 0.515991 0.536699 0.458991 0.579969 0.606846 0.459244 0.685123 0.278242 0.338866 0.928593 0.484545 0.535974 0.503408 0.541706 0.576207 0.057224 0.453188 0.501882 0.380677 0.451455 0.667342 0.569345 0.572167 0.429959 0.353622 0.498828 0.463072 0.577153 0.566387 0.684124 0.518154 0.470912 0.378478 0.707479 0.143486 0.471493 0.484257 0.790010 0.525274 0.515027 0.519252 0.540247 0.536363 0.595249 0.595793 0.412428 0.377708 0.532524 0.797741 0.561416 0.454650 0.704579 0.508767 0.682631 0.441302 0.631990 0.825613 0.399009 0.572506 0.548225 0.401187 0.638905 0.437766 0.700660 0.534610 0.501356 0.481871 0.558405 0.595510 0.532324 0.530710 0.498539 0.507156 0.252319 0.346828 0.653037 0.548073 0.411007 0.512249 0.351724 0.509840 0.473065 0.596872 0.403319 0.402290 0.526047 0.508882 0.668110 0.574335 0.489567 0.439570 0.538857 0.500831 0.576568 0.518407 0.367396 0.479446 0.599949 0.453389 0.525859 0.690884 0.448295 0.592417 0.512178 0.547447 0.555283 0.443732 0.606990 0.564824 0.534900 0.428259 0.533247 0.493488 0.511511 0.644215 0.431118 0.610364 0.401457 0.656617 0.712885 0.586498 0.587862 0.353511 0.665724 0.607833 0.474808 0.532005 0.538701 0.487993 0.383380 0.572150 0.585555 0.465452 0.624987 0.842768 0.608872 0.390232 0.582261 0.564362 0.467579 0.580436 0.546684 0.512485 0.489083 0.814401 0.530712 0.334912 0.440092 0.522265 0.295692 0.445828 0.492967 0.685862 0.657407 0.535970 0.495045 0.351513 0.111623 0.191255 0.536388 0.578970 0.518081 0.351078 0.464212 0.535173 0.566777 0.280672 0.473757 0.504538 0.501774 0.437747 0.527074 0.626084 0.562009 0.414619 0.397310 0.525596 0.503448 0.572368 0.414006 0.571262 0.529707 0.338439 0.508075 0.504372 0.571040 0.504782 0.692365 0.626766 0.482776 0.582861 0.653500 0.605179 0.602153 0.567855 0.428826 0.217139 0.451153 0.491747 0.322245 0.513887 0.499376 0.300192 0.456706 0.494118 0.504113 0.590251 0.372109 0.553862 0.463159 0.606371 0.498867 0.406051 0.477871 0.481234 0.337870 0.450720 0.800227 0.552953 0.523242 0.566404 0.452121 0.772487 0.525315 0.613947 0.514498 0.529799 0.305955 0.573475 0.631407 0.604932 0.686194 0.078367 0.518883 0.413597 0.506168 0.526452 0.539914 0.584142 0.471547 0.503774 0.621272 0.615459 0.507147 0.607922 0.336097 0.353906 0.530616 0.562569 0.532099 0.545425 0.416312 0.561759 0.612855 0.496174 0.964732 0.462286 0.418783 0.490768 0.548696 0.514855 0.688237 0.380963 0.400560 0.585404 0.557987 0.397259 0.454944 0.417319 0.665401 0.436782 0.718348 0.420694 0.330257 0.250836 0.604292 0.397259 0.551927 0.438711 0.581945 0.465990 0.522969 0.472964 0.667066 0.548426 0.443037 0.470341 0.455494 0.557898 0.389077 0.613980 0.497544 0.601783 0.382838 0.532070 0.563430 0.498214 0.580684 0.504068 0.590130 0.618210 0.669935 0.574893 0.401575 0.542270 0.721614 0.331559 0.508182 0.503688 0.583487 0.642399 0.708288 0.602979 0.525664 0.574965 0.487605 0.542110 0.586401 0.486116 0.399601 0.911304 0.445965 0.903403 0.436332 0.382760 0.376281 0.326574 0.482219 0.532256 0.432323 0.491015 0.490570 0.398884 0.354936 0.611671 0.379901 0.297280 0.537860 0.546281 0.438234 0.576925 0.560395 0.552595 0.508965 0.564447 0.577056 0.661477 0.584485 0.380315 0.520123 0.682028 0.489137 0.601777 0.520423 0.611203 0.547509 0.519035 0.610311 0.430880 0.623034 0.635308 0.322165 0.582643 
1 0.489370 0.370724 0.367458 0.405354 0.201738 0.353104 0.400423 0.223174 1.000000 0.251410 0.334102 0.354482 0.255069 0.778414 0.659394 0.229903 0.562068 0.333513 0.420410 0.505260 0.577830 0.331375 0.400084 0.392301 0.539716 0.509330 0.396648 0.422420 0.452115 0.362125 0.424579 0.644197 0.348005 0.286655 0.406362 0.488897 0.333882 0.382120 0.364472 0.464100 0.542418 0.342227 0.387968 0.543902 0.412573 0.233185 0.377283 0.303295 0.379487 0.153501 0.372657 0.365995 0.369604 0.763254 0.750171 0.275311 0.804289 0.376395 0.225212 0.474786 0.141240 0.377471 0.232970 0.521256 0.366110 0.397053 0.386801 0.318810 0.355257 0.542202 0.403079 0.566754 0.272454 0.598651 0.329879 0.167405 0.272765 0.368999 0.247643 0.385202 0.341073 0.135405 0.379367 0.364802 0.319750 0.481778 0.346870 0.426211 0.419689 0.375141 0.260385 0.562137 0.374593 0.410562 0.419566 0.697577 0.364223 0.324379 0.385448 0.544176 0.318584 0.369289 0.317286 0.353060 0.258303 0.480922 0.263107 0.623950 0.359708 0.377422 0.605288 0.807332 0.387963 0.276900 0.634660 0.405153 0.386109 0.258141 0.347518 0.368745 0.425843 0.391820 0.462546 0.392300 0.330601 0.310149 0.516955 0.486684 0.564118 0.340412 0.628789 0.273603 0.718882 0.350941 0.356481 0.552362 0.382544 0.402912 0.348375 0.624293 0.400166 0.412284 0.420778 0.327608 0.690694 0.238826 0.305981 0.379199 0.418889 0.335855 0.608082 0.358429 0.473500 0.716186 0.375531 0.409110 0.376909 0.426414 0.373155 0.360283 0.494710 0.511448 0.595209 0.356839 0.350271 0.496600 0.434393 0.352485 0.340904 0.425060 0.342360 0.522948 0.233556 0.331627 0.390316 0.585509 0.321832 0.293387 0.390372 0.328177 0.302956 0.423934 0.179864 0.276116 0.416388 0.469933 0.856782 0.369156 0.465735 0.579092 0.316143 0.514125 0.402865 0.198862 0.348395 0.651052 0.309279 0.362806 0.432547 0.736739 0.323801 0.367026 0.370412 0.386440 0.588252 0.391332 0.737015 0.405794 0.419261 0.503415 0.335688 0.418314 0.499916 0.509488 0.534818 0.558025 0.486970 0.536692 0.279697 0.367361 0.643732 0.388987 0.261080 0.630738 0.376091 0.365329 0.321884 0.432031 0.282326 0.413448 0.315106 0.732682 0.334220 0.358603 0.355304 0.366477 0.658988 0.394227 0.389808 0.301585 0.345151 0.412626 0.349087 0.406731 0.644208 0.358104 0.346038 0.618585 0.691979 0.373668 0.326516 0.364787 0.368533 0.354700 0.390165 0.381089 0.412034 0.398623 0.682620 0.418074 0.617123 0.255400 0.355279 0.474158 0.382328 0.386462 0.230641 0.344534 0.300177 0.282899 0.273930 0.424166 0.385482 0.343720 0.292131 0.397403 0.376263 0.449752 0.354509 0.470410 0.379681 0.512233 0.549457 0.421346 0.382215 0.571639 0.805061 0.516834 0.373474 0.489729 0.333846 0.412419 0.456361 0.538163 0.415189 0.529785 0.782398 0.574238 0.418175 0.319892 0.268667 0.569000 0.396332 0.270929 0.408322 0.520113 0.570416 0.504877 0.395386 0.554856 0.372645 0.466553 0.525777 0.403067 0.343349 0.471886 0.391059 0.416942 0.541625 0.440396 0.582222 0.406720 0.443192 0.385794 0.388300 0.591644 0.543479 0.383666 0.433458 0.481841 0.278019 0.373205 0.305556 0.296052 0.378586 0.638495 0.246178 0.381652 0.529990 0.406858 0.459149 0.426876 0.182103 0.363570 0.322668 0.535124 0.441018 0.240227 0.411743 0.192843 0.301298 0.382237 0.345013 0.346109 0.266601 0.400066 0.502787 0.253536 0.371878 0.663012 0.761216 0.436142 0.384828 0.397861 0.709565 0.438014 0.354403 0.335531 0.352890 0.594627 0.333889 0.178692 0.355491 0.472805 0.515183 0.627985 0.393512 0.389386 0.362713 0.350077 0.416917 0.352575 0.400358 0.291395 0.504943 0.404239 0.415297 0.372229 0.752772 0.391468 0.590620 0.359754 0.636204 0.465909 0.372032 0.395987 0.444364 0.425827 0.281115 0.482905 0.330219 0.406844 0.556768 0.322020 0.438145 0.512981 0.387446 0.310027 0.325877 0.771754 0.358555 0.530565 0.517412 0.468324 0.548475 0.787146 0.290352 0.464657 0.270699 0.544307 0.504754 0.378291 0.410171 0.377300 0.604176 0.770299 0.154552 0.716432 0.540132 0.559291 0.221626 0.430915 0.334349 0.386090 0.284392 0.265006 0.394286 0.380204 0.321047 0.305417 0.481364 0.358797 0.500323 0.288259 0.391137 0.108437 0.390049 0.446737 0.420336 0.451293 0.360976 0.350528 0.497690 0.235461 0.433233 0.384623 0.386191 0.394207 0.564005 0.435917 0.419279 0.265520 0.359186 0.389185 0.255668 0.427775 0.306028 0.433740 0.260251 0.521566 0.430084 0.434590 0.387031 0.394917 0.337252 0.492328 0.535379 0.457025 0.514450 0.477311 0.798503 0.432143 0.383881 0.420355 0.254215 0.616716 0.699585 0.591609 0.366840 0.399117 0.369840 0.399060 0.415511 0.460780 0.140042 0.425167 0.344039 0.366217 0.683915 0.624796 0.418595 0.360559 0.188245 0.420103 0.421009 0.268523 0.581062 0.506825 0.322530 0.356695 0.326112 0.551491 0.314183 0.288946 0.416703 0.560218 0.570024 0.375794 0.243320 0.604661 0.365700 0.541155 0.166833 0.351947 0.351670 0.311738 0.380567 0.461640 0.536773 0.331482 0.440255 0.281715 0.359977 0.221924 0.282742 0.255947 0.365687 0.248786 0.537092 0.508818 0.536355 0.576245 0.326844 0.362019 0.428490 0.685370 0.598828 0.573828 0.620819 0.448725 0.392386 0.414150 0.362560 0.372406 0.422735 0.632318 0.396967 0.357149 0.341838 0.271615 0.397231 0.705006 0.404630 0.404784 0.297435 0.361895 0.366244 0.514774 0.630857 0.594063 0.319062 0.325692 0.418275 0.431120 0.616593 0.455959 
1 0.510173 0.510115 0.606214 0.456745 0.098603 0.655727 0.409129 0.288645 0.251410 1.000000 0.489241 0.467399 0.516566 0.126321 0.612311 0.334076 0.239126 0.612297 0.246708 0.427299 0.322347 0.583576 0.446445 0.553249 0.488894 0.568396 0.503040 0.515560 0.714602 0.583387 0.510628 0.382991 0.529935 0.727301 0.628811 0.475213 0.567081 0.513799 0.342930 0.290599 0.416873 0.465521 0.772841 0.327761 0.645936 0.147467 0.487587 0.451012 0.411460 0.453454 0.598637 0.504261 0.604112 0.439894 0.355191 0.479645 0.341572 0.194993 0.249333 0.272342 0.393220 0.596704 0.550986 0.450174 0.592093 0.567687 0.449624 0.404350 0.595607 0.541919 0.423794 0.482792 0.419327 0.411467 0.414554 0.327766 0.557316 0.408613 0.192164 0.545343 0.524958 0.387979 0.542327 0.484495 0.352403 0.434948 0.389518 0.383833 0.424771 0.522181 0.541554 0.534135 0.321087 0.733131 0.524713 0.485153 0.437480 0.481903 0.458557 0.212634 0.334110 0.511392 0.581827 0.508461 0.347863 0.389593 0.602127 0.518267 0.399629 0.382837 0.408428 0.324551 0.428268 0.452126 0.471523 0.625684 0.569284 0.416062 0.492663 0.595236 0.152352 0.421204 0.422641 0.692035 0.453251 0.135606 0.339995 0.379353 0.481580 0.580453 0.523436 0.443949 0.371943 0.444865 0.586684 0.448539 0.414305 0.420357 0.489978 0.360410 0.773816 0.447269 0.406163 0.591835 0.373223 0.632276 0.479835 0.346267 0.587457 0.510434 0.301589 0.700081 0.422152 0.193974 0.344591 0.277747 0.476486 0.444892 0.492067 0.300807 0.543224 0.450787 0.260307 0.462698 0.499258 0.563090 0.449561 0.568554 0.529382 0.582190 0.621551 0.459073 0.262865 0.245659 0.491724 0.424224 0.611270 0.095528 0.417675 0.440437 0.690627 0.376505 0.343327 0.552465 0.659931 0.424519 0.325675 0.352931 0.520252 0.464104 0.582110 0.479553 0.590979 0.165293 0.632438 0.350785 0.522657 0.553788 0.349799 0.408551 0.421520 0.409006 0.498086 0.625718 0.448715 0.601366 0.375664 0.531841 0.397105 0.474839 0.485767 0.258880 0.524155 0.298093 0.493209 0.301035 0.373336 0.528156 0.454470 0.501873 0.192962 0.542965 0.396204 0.516704 0.538023 0.402982 0.433327 0.326607 0.047966 0.286994 0.349395 0.275248 0.490008 0.496884 0.457887 0.351492 0.472494 0.275523 0.525679 0.622362 0.448783 0.423180 0.531097 0.406400 0.364240 0.495019 0.616589 0.086959 0.355085 0.499211 0.569645 0.584514 0.574959 0.368424 0.494977 0.377940 0.445485 0.511783 0.324569 0.397850 0.484252 0.291196 0.443553 0.583695 0.554565 0.485701 0.211418 0.272729 0.477745 0.322583 0.291494 0.484472 0.722394 0.333330 0.559784 0.281329 0.576693 0.452441 0.693670 0.424335 0.406942 0.496352 0.576943 0.655645 0.671997 0.637053 0.221019 0.251377 0.598187 0.422473 0.353946 0.340190 0.253666 0.249805 0.589377 0.406067 0.386053 0.414443 0.449776 0.702122 0.244959 0.411644 0.431823 0.280738 0.721249 0.364677 0.637642 0.494970 0.325637 0.397985 0.597545 0.297689 0.546149 0.467400 0.430594 0.444479 0.695722 0.518497 0.363704 0.686667 0.518772 0.480080 0.556564 0.576206 0.396742 0.498181 0.378834 0.510072 0.283043 0.543606 0.520117 0.438565 0.205558 0.736921 0.511935 0.206913 0.260123 0.630437 0.423208 0.470681 0.517380 0.555325 0.282174 0.553517 0.537241 0.468906 0.412766 0.343596 0.589873 0.286247 0.403266 0.580377 0.480538 0.486540 0.346064 0.655129 0.317172 0.236204 0.460148 0.287986 0.358198 0.629077 0.441817 0.490066 0.405886 0.436341 0.624485 0.534708 0.531040 0.510121 0.097359 0.373107 0.353197 0.367465 0.312165 0.341247 0.522703 0.321774 0.328271 0.275056 0.415385 0.550711 0.430840 0.405271 0.536923 0.542999 0.515155 0.403781 0.503191 0.436990 0.455540 0.345758 0.387160 0.694290 0.502235 0.283240 0.485618 0.361458 0.617506 0.386912 0.530369 0.718001 0.462686 0.547535 0.548049 0.284107 0.651607 0.560166 0.507134 0.138527 0.426201 0.388643 0.239633 0.508788 0.331714 0.259565 0.416876 0.436166 0.604510 0.530557 0.267977 0.500991 0.267886 0.456526 0.353847 0.338818 0.393942 0.399171 0.302289 0.458441 0.337494 0.549403 0.460583 0.612011 0.504916 0.202232 0.472868 0.575723 0.590967 0.488174 0.440491 0.424333 0.444927 0.535224 0.553245 0.037324 0.545560 0.341433 0.360958 0.482091 0.539490 0.517955 0.300447 0.371510 0.345246 0.446470 0.563562 0.482243 0.343582 0.569129 0.717220 0.550512 0.421806 0.593273 0.632793 0.504557 0.430753 0.332176 0.359019 0.282037 0.323934 0.382627 0.345000 0.690647 0.544615 0.588644 0.369453 0.657750 0.608748 0.621616 0.370579 0.410096 0.518376 0.339754 0.185796 0.253353 0.187724 0.218735 0.603361 0.630517 0.362405 0.506624 0.467634 0.506539 0.404374 0.674356 0.634795 0.478533 0.566457 0.495474 0.558814 0.400825 0.270775 0.495582 0.430995 0.562422 0.405936 0.416709 0.361926 0.741700 0.561870 0.483028 0.725096 0.502040 0.513592 0.490587 0.539746 0.559742 0.514736 0.666727 0.488467 0.450593 0.463530 0.563746 0.488121 0.545041 0.562924 0.561796 0.388436 0.554013 0.442738 0.298053 0.250427 0.325850 0.298060 0.283210 0.596109 0.539001 0.315440 0.339140 0.375346 0.449366 0.487671 0.399571 0.455969 0.428144 0.299994 0.473483 0.455411 0.512982 0.481438 0.427978 0.702616 0.440328 0.376430 0.573358 0.361554 0.707570 0.323618 0.593370 0.607878 0.247084 0.347136 0.578519 0.462431 0.461843 0.348067 0.510996 0.519152 0.408972 0.537950 0.617272 0.450100 0.403044 0.348822 0.309407 
-1 0.731110 0.804521 0.702208 0.822519 0.241186 0.920682 0.754814 0.523235 0.334102 0.489241 1.000000 0.807852 0.526560 0.161317 0.690645 0.532291 0.660738 0.933810 0.639505 0.827910 0.710810 0.882012 0.786492 0.804053 0.695640 0.780921 0.901925 0.784290 0.605896 0.975554 0.755528 0.650286 0.829168 0.866357 0.744804 0.632103 0.845020 0.730144 0.775486 0.461131 0.775274 0.898815 0.818456 0.591415 0.824328 0.360020 0.822869 0.791293 0.841019 0.312456 0.802155 0.767422 0.836325 0.554222 0.554226 0.754316 0.577285 0.557225 0.502512 0.734168 0.308423 0.905013 0.759679 0.684549 0.903359 0.879061 0.781004 0.801864 0.795142 0.854297 0.798851 0.756678 0.771490 0.819151 0.831293 0.569323 0.877851 0.860442 0.533797 0.839468 0.757409 0.305053 0.789469 0.784351 0.907814 0.807751 0.586830 0.880007 0.625247 0.860576 0.750893 0.883273 0.759239 0.754469 0.790078 0.772783 0.838917 0.695291 0.758336 0.648305 0.697893 0.823618 0.861317 0.852981 0.818450 0.690798 0.835877 0.773623 0.813933 0.891294 0.759463 0.471351 0.827654 0.898375 0.666064 0.779221 0.955435 0.805826 0.830272 0.864750 0.537289 0.800263 0.849155 0.707863 0.931881 0.534859 0.829876 0.771140 0.860344 0.717528 0.790528 0.706012 0.682214 0.819759 0.792232 0.846000 0.809072 0.772696 0.878078 0.731905 0.781120 0.893365 0.806333 0.849699 0.689187 0.484641 0.740049 0.568614 0.758450 0.872778 0.671469 0.843448 0.613440 0.469405 0.762632 0.720778 0.751878 0.705736 0.882796 0.447995 0.804718 0.769729 0.718227 0.850088 0.876626 0.803420 0.846184 0.877551 0.926621 0.920020 0.958699 0.844376 0.472078 0.693396 0.829122 0.629318 0.915777 0.515819 0.890317 0.850702 0.888623 0.807334 0.647677 0.857357 0.901174 0.669808 0.363584 0.602511 0.733330 0.797325 0.845385 0.717378 0.852658 0.437331 0.757327 0.724744 0.832472 0.791999 0.681726 0.680972 0.811717 0.951837 0.788719 0.823733 0.724510 0.823923 0.530360 0.847218 0.829106 0.744707 0.825782 0.681440 0.671149 0.791529 0.792704 0.550153 0.749512 0.811236 0.697583 0.932009 0.398092 0.670306 0.518214 0.577519 0.795741 0.872483 0.943038 0.689403 0.086271 0.837074 0.902644 0.605793 0.799850 0.947203 0.827378 0.857313 0.686262 0.736977 0.750846 0.788283 0.834795 0.826278 0.819755 0.565767 0.776127 0.582347 0.851639 0.302608 0.600469 0.914193 0.808283 0.939348 0.877657 0.823100 0.584099 0.785062 0.747319 0.874772 0.493391 0.502320 0.756833 0.501903 0.820832 0.765901 0.921640 0.775830 0.472470 0.644195 0.799352 0.523302 0.632028 0.776584 0.883810 0.701812 0.737863 0.685914 0.820886 0.795360 0.747889 0.666909 0.900651 0.796264 0.885122 0.852935 0.858777 0.711859 0.427245 0.685677 0.782198 0.798563 0.839239 0.761772 0.616984 0.620544 0.583901 0.747405 0.606097 0.766669 0.657940 0.684897 0.455478 0.750768 0.810524 0.904692 0.836811 0.830549 0.682935 0.792120 0.588152 0.723543 0.785154 0.744125 0.827522 0.804483 0.701113 0.884402 0.842800 0.838234 0.790216 0.652266 0.772079 0.876916 0.851401 0.622387 0.864759 0.769157 0.754472 0.787110 0.817019 0.835639 0.545626 0.866371 0.476507 0.766561 0.802557 0.620670 0.464169 0.925834 0.671408 0.847356 0.832054 0.806730 0.601923 0.984750 0.803208 0.768664 0.724509 0.518560 0.805696 0.652265 0.973648 0.961347 0.822321 0.825512 0.922188 0.803319 0.608811 0.402327 0.666503 0.566081 0.568584 0.731818 0.683588 0.728175 0.748560 0.803865 0.915920 0.783304 0.892143 0.815705 0.200593 0.278227 0.815210 0.764837 0.645193 0.487392 0.854810 0.755158 0.888424 0.683393 0.768515 0.772257 0.696651 0.631567 0.808279 0.786499 0.840942 0.801158 0.652923 0.776117 0.759173 0.878931 0.589996 0.836693 0.848924 0.454752 0.642342 0.767770 0.838102 0.736824 0.931633 0.758570 0.808949 0.824736 0.845136 0.719167 0.894211 0.814069 0.583107 0.336674 0.806245 0.796257 0.617063 0.826550 0.711321 0.523359 0.706886 0.839680 0.762028 0.800744 0.746852 0.821894 0.706177 0.856784 0.729869 0.642495 0.307166 0.693786 0.735856 0.828572 0.505416 0.873463 0.867083 0.898628 0.701818 0.530985 0.744001 0.911209 0.782860 0.926854 0.741797 0.841103 0.846302 0.800554 0.897056 0.151744 0.832302 0.761098 0.762001 0.883578 0.776193 0.884665 0.755048 0.326825 0.791859 0.612571 0.656804 0.838130 0.506585 0.474159 0.686180 0.793030 0.713293 0.847356 0.728459 0.744965 0.788569 0.755258 0.528725 0.715451 0.772914 0.781397 0.846082 0.875598 0.913366 0.723250 0.701513 0.833222 0.751676 0.701591 0.674759 0.837420 0.829565 0.825586 0.500787 0.668858 0.474784 0.465275 0.887722 0.578355 0.809809 0.866415 0.823137 0.686885 0.310602 0.675054 0.907484 0.864981 0.576162 0.679455 0.873630 0.862320 0.550795 0.779587 0.828519 0.872769 0.782360 0.734416 0.684633 0.715775 0.702937 0.712779 0.728867 0.854418 0.806025 0.841700 0.641111 0.895525 0.736299 0.576617 0.769959 0.844475 0.318069 0.826261 0.899250 0.782766 0.745982 0.880707 0.745713 0.816979 0.792402 0.870502 0.619817 0.533141 0.608308 0.550360 0.897510 0.554997 0.694528 0.649909 0.680006 0.812320 0.663926 0.922308 0.853923 0.658774 0.555160 0.857699 0.687566 0.694004 0.829825 0.801908 0.752861 0.821358 0.831683 0.726983 0.807590 0.792044 0.696665 0.839756 0.867244 0.582806 0.808585 0.827666 0.900819 0.755851 0.848180 0.764358 0.805505 0.795326 0.917534 0.881490 0.795818 0.859744 0.615299 0.664895 
1 0.801290 0.609270 0.893360 0.603508 0.300242 0.809274 0.600560 0.619685 0.354482 0.467399 0.807852 1.000000 0.702941 0.174837 0.770131 0.591311 0.532202 0.852944 0.545687 0.698188 0.638204 0.830303 0.934337 0.788311 0.769083 0.826381 0.937862 0.619033 0.732927 0.853512 0.718580 0.672772 0.662605 0.694812 0.808364 0.610809 0.963634 0.752982 0.622167 0.491556 0.800253 0.936338 0.727877 0.700505 0.910633 0.441659 0.783332 0.600192 0.787722 0.335080 0.622336 0.644486 0.707445 0.655008 0.638337 0.555778 0.682791 0.450813 0.543729 0.555351 0.271835 0.932163 0.600525 0.664884 0.873217 0.739483 0.640888 0.704362 0.611122 0.771544 0.701464 0.748077 0.901389 0.705271 0.603152 0.337542 0.725343 0.735011 0.518013 0.692446 0.658146 0.253522 0.728556 0.587936 0.797630 0.695868 0.635987 0.705184 0.776405 0.663651 0.557793 0.796048 0.652546 0.721450 0.730241 0.778464 0.643341 0.518244 0.689715 0.516472 0.750760 0.732957 0.642686 0.616558 0.697774 0.637355 0.554101 0.763937 0.653093 0.631410 0.738860 0.558411 0.597521 0.724842 0.791318 0.768667 0.874061 0.723653 0.715863 0.694845 0.513230 0.731876 0.688770 0.677677 0.711440 0.456581 0.739173 0.638501 0.692999 0.596816 0.828390 0.851757 0.697865 0.754431 0.656773 0.718895 0.632754 0.601106 0.748880 0.622907 0.698268 0.771138 0.680956 0.875915 0.674930 0.371451 0.603843 0.559432 0.762447 0.645474 0.577012 0.767686 0.777663 0.434345 0.895696 0.742969 0.648281 0.624720 0.658099 0.704573 0.750395 0.703513 0.540177 0.685638 0.745571 0.774080 0.787003 0.841027 0.830038 0.761842 0.821497 0.855907 0.458688 0.548073 0.634048 0.789221 0.786304 0.388087 0.861504 0.872210 0.716313 0.692722 0.369722 0.694456 0.846493 0.872619 0.471153 0.558763 0.731129 0.752224 0.698779 0.754397 0.946085 0.616696 0.695415 0.724538 0.652835 0.706422 0.652957 0.655079 0.671772 0.791722 0.663034 0.643120 0.672025 0.737523 0.701017 0.811787 0.636679 0.853295 0.632638 0.571873 0.736165 0.689263 0.766885 0.718462 0.695611 0.797677 0.662421 0.850244 0.428126 0.684971 0.585103 0.673473 0.655427 0.614228 0.690664 0.737658 0.131876 0.624672 0.861937 0.587708 0.589306 0.863973 0.624780 0.900593 0.820452 0.702058 0.910422 0.616038 0.621630 0.685174 0.781007 0.653696 0.698653 0.811297 0.905442 0.266668 0.619200 0.680310 0.848499 0.780015 0.651541 0.591806 0.679891 0.658565 0.679445 0.699977 0.547682 0.712669 0.810324 0.584409 0.708491 0.712178 0.839386 0.746229 0.517305 0.636261 0.603827 0.554825 0.696479 0.619024 0.758854 0.495708 0.820456 0.577844 0.775361 0.625244 0.740255 0.599465 0.779591 0.848880 0.850744 0.890549 0.700337 0.772218 0.441805 0.587614 0.670341 0.701649 0.576695 0.640201 0.607522 0.574486 0.573485 0.828685 0.552398 0.619274 0.737206 0.745133 0.536682 0.706447 0.627829 0.753914 0.772023 0.682446 0.825391 0.642393 0.570339 0.679658 0.674631 0.595200 0.775397 0.748837 0.742710 0.731172 0.667354 0.862240 0.665114 0.749555 0.748170 0.718605 0.689321 0.798203 0.680168 0.672349 0.673729 0.965703 0.610021 0.737592 0.655869 0.666323 0.558643 0.784170 0.616695 0.552495 0.491689 0.844294 0.808164 0.952268 0.713221 0.653214 0.354574 0.873840 0.789608 0.768646 0.695170 0.509788 0.662334 0.422382 0.774889 0.861200 0.594458 0.657188 0.742827 0.912124 0.589656 0.588250 0.689271 0.622967 0.669039 0.769185 0.573181 0.748872 0.722476 0.742436 0.871650 0.588422 0.658047 0.651684 0.260844 0.275037 0.614050 0.625276 0.619314 0.596043 0.616005 0.592484 0.863634 0.534032 0.651820 0.580321 0.620096 0.560799 0.659107 0.652214 0.802126 0.717705 0.661693 0.705157 0.619615 0.907599 0.506754 0.756837 0.894956 0.490323 0.601615 0.623043 0.654206 0.773280 0.767539 0.770860 0.752291 0.722915 0.888838 0.666448 0.807778 0.626460 0.826808 0.343502 0.725294 0.655793 0.586754 0.702774 0.629192 0.501091 0.611887 0.818717 0.591141 0.709686 0.604774 0.664620 0.556342 0.727384 0.809746 0.670685 0.263711 0.699409 0.577047 0.622107 0.455231 0.722211 0.645201 0.771754 0.611336 0.526854 0.842322 0.903744 0.578298 0.860935 0.691314 0.658044 0.742984 0.851709 0.816405 0.197630 0.677204 0.554317 0.604583 0.694553 0.583760 0.798164 0.563925 0.374542 0.672396 0.844350 0.650593 0.699239 0.637711 0.546744 0.759247 0.583612 0.669280 0.694958 0.786998 0.628605 0.568321 0.599050 0.614016 0.756814 0.693573 0.635981 0.671205 0.853034 0.781060 0.605121 0.590463 0.797369 0.740947 0.663390 0.661324 0.636813 0.685643 0.569057 0.539243 0.564160 0.431344 0.508680 0.736272 0.754582 0.651276 0.648929 0.679760 0.722899 0.272672 0.751969 0.807191 0.670968 0.695049 0.766079 0.687677 0.667187 0.402323 0.770665 0.662173 0.782968 0.715439 0.667196 0.599991 0.740367 0.709709 0.595239 0.700348 0.692369 0.661181 0.817411 0.744827 0.869956 0.749277 0.575109 0.545609 0.719262 0.335591 0.933070 0.787672 0.636784 0.572610 0.717404 0.608762 0.682265 0.726746 0.700460 0.515589 0.562928 0.527362 0.593759 0.660296 0.428604 0.594239 0.611483 0.680435 0.742194 0.692320 0.687379 0.634343 0.771847 0.704310 0.771919 0.644674 0.730866 0.654712 0.655279 0.693698 0.633826 0.642470 0.698449 0.615108 0.772748 0.710207 0.811597 0.819119 0.606802 0.613676 0.773880 0.677064 0.653841 0.658144 0.667901 0.798091 0.638115 0.711791 0.704025 0.697550 0.679831 0.564213 0.574756 
-1 0.712788 0.477960 0.721306 0.396346 0.418541 0.575092 0.415583 0.368271 0.255069 0.516566 0.526560 0.702941 1.000000 0.146979 0.709260 0.445299 0.370888 0.610891 0.332284 0.532651 0.481120 0.713139 0.643850 0.553486 0.590696 0.604480 0.645344 0.482690 0.660596 0.644670 0.696952 0.550165 0.468316 0.532980 0.722949 0.622883 0.709536 0.709085 0.451512 0.643150 0.476489 0.748649 0.643047 0.602490 0.671284 0.474868 0.584163 0.486494 0.538292 0.283296 0.503890 0.513748 0.556651 0.567971 0.542121 0.398556 0.439776 0.379601 0.704165 0.319939 0.230845 0.671441 0.579866 0.526705 0.656635 0.531711 0.612584 0.702623 0.474785 0.499807 0.614884 0.524354 0.707655 0.436591 0.433330 0.254692 0.622135 0.505230 0.289657 0.491226 0.430295 0.202620 0.699217 0.405917 0.494217 0.562354 0.466363 0.463600 0.527948 0.442087 0.413167 0.607720 0.460176 0.671187 0.592838 0.548402 0.410662 0.395896 0.486147 0.316646 0.691631 0.452443 0.448702 0.448403 0.599152 0.508847 0.423319 0.546628 0.451167 0.407701 0.430806 0.454304 0.395468 0.520339 0.629472 0.752007 0.614550 0.572326 0.522145 0.484473 0.324296 0.469697 0.474044 0.643397 0.462907 0.275083 0.496068 0.403774 0.543213 0.693580 0.571748 0.825607 0.449260 0.601025 0.577740 0.446761 0.478467 0.455394 0.609484 0.392993 0.644255 0.548122 0.444422 0.670482 0.404633 0.364614 0.461880 0.649020 0.652731 0.416908 0.370947 0.654035 0.810665 0.297834 0.514550 0.455387 0.519394 0.542794 0.447046 0.607017 0.541527 0.522483 0.316052 0.474094 0.632488 0.731699 0.478404 0.727701 0.619917 0.603183 0.596713 0.618924 0.377529 0.398347 0.502324 0.626028 0.663890 0.196660 0.571755 0.785777 0.527394 0.524667 0.293767 0.514617 0.631029 0.692004 0.444535 0.611731 0.622296 0.505376 0.460533 0.578132 0.682708 0.403768 0.552911 0.465414 0.434113 0.592071 0.554333 0.407795 0.562443 0.482245 0.604720 0.483127 0.565639 0.567907 0.593219 0.585613 0.415624 0.594145 0.456406 0.344844 0.570273 0.423487 0.550920 0.561095 0.493425 0.607204 0.739735 0.609347 0.338645 0.762370 0.416412 0.701040 0.564365 0.378605 0.444022 0.499249 0.182971 0.340751 0.569791 0.396056 0.486454 0.599054 0.443318 0.547419 0.683266 0.452661 0.767129 0.542060 0.406704 0.487319 0.537310 0.727246 0.446085 0.902770 0.678128 0.146710 0.425369 0.435328 0.680489 0.542105 0.473339 0.388988 0.736673 0.464304 0.533506 0.443119 0.391528 0.858442 0.529419 0.446450 0.550297 0.607293 0.582471 0.786420 0.396456 0.535602 0.381010 0.350025 0.672806 0.398174 0.609514 0.358144 0.670048 0.428787 0.565439 0.460458 0.830843 0.529673 0.493584 0.603368 0.611125 0.652269 0.614398 0.760544 0.327818 0.448573 0.516043 0.482984 0.404576 0.499815 0.560201 0.388827 0.529730 0.612599 0.385116 0.453730 0.608277 0.888456 0.409996 0.474814 0.444079 0.424798 0.579281 0.425739 0.664686 0.402340 0.594802 0.588358 0.572227 0.418676 0.554606 0.578923 0.798304 0.489343 0.533810 0.562461 0.405912 0.602050 0.585376 0.466636 0.510545 0.748670 0.404234 0.414638 0.530369 0.609832 0.343161 0.520229 0.915839 0.432790 0.331456 0.632451 0.434424 0.298878 0.464546 0.682452 0.692121 0.637094 0.516746 0.608918 0.282539 0.610447 0.736093 0.605387 0.513022 0.326221 0.493162 0.349509 0.498160 0.582214 0.494546 0.526243 0.508557 0.715772 0.510371 0.446036 0.584786 0.470897 0.469914 0.652616 0.528406 0.708754 0.488493 0.558624 0.638257 0.418049 0.476742 0.498421 0.327402 0.421589 0.442846 0.397877 0.494985 0.528101 0.441828 0.416226 0.490999 0.500409 0.549561 0.415616 0.556162 0.612260 0.450954 0.445494 0.676868 0.521160 0.601808 0.647712 0.516719 0.521094 0.356510 0.653737 0.728488 0.567405 0.639452 0.372585 0.524331 0.441406 0.522744 0.642435 0.520771 0.574638 0.582208 0.438352 0.684479 0.471818 0.846319 0.234089 0.582429 0.475429 0.468323 0.453810 0.421481 0.290247 0.592665 0.616011 0.542697 0.483250 0.399499 0.520033 0.367505 0.498405 0.564859 0.406565 0.223793 0.469988 0.355946 0.476540 0.292179 0.631155 0.496779 0.519528 0.700257 0.291965 0.587004 0.641219 0.407500 0.711289 0.507246 0.485682 0.471093 0.817471 0.595873 0.228820 0.585006 0.378043 0.429452 0.470761 0.462472 0.581282 0.376579 0.484070 0.464680 0.547067 0.699141 0.504226 0.650466 0.642213 0.807743 0.478392 0.612942 0.549661 0.839309 0.463108 0.397512 0.444606 0.417387 0.485156 0.482906 0.377908 0.402797 0.681257 0.494808 0.534123 0.488022 0.650249 0.549102 0.655752 0.447426 0.412410 0.506347 0.364551 0.354263 0.341446 0.274176 0.521435 0.546845 0.754537 0.495250 0.519470 0.463220 0.820369 0.222580 0.694470 0.595630 0.531970 0.535783 0.699846 0.481974 0.452184 0.405830 0.716158 0.483617 0.608248 0.466778 0.508483 0.533981 0.762561 0.604050 0.388947 0.655443 0.531839 0.441985 0.519576 0.754721 0.689172 0.568340 0.643071 0.396667 0.479623 0.271543 0.819610 0.482419 0.494368 0.427492 0.463729 0.432728 0.595717 0.564736 0.493526 0.440841 0.429560 0.534915 0.358630 0.531561 0.574283 0.459957 0.548943 0.590117 0.549000 0.761816 0.432136 0.472009 0.540383 0.660441 0.483921 0.505867 0.606621 0.424114 0.516877 0.674161 0.461906 0.471802 0.510462 0.403970 0.697019 0.457543 0.629075 0.632819 0.370008 0.420495 0.632587 0.542698 0.549685 0.431984 0.500762 0.572350 0.425346 0.555363 0.488832 0.489713 0.422850 0.469649 0.360759 
1 0.223429 0.171214 0.187024 0.204697 0.138331 0.174323 0.200168 0.117521 0.778414 0.126321 0.161317 0.174837 0.146979 1.000000 0.392977 0.129266 0.306982 0.164880 0.209781 0.259742 0.321998 0.170403 0.194606 0.162650 0.268598 0.256817 0.197053 0.241150 0.234780 0.179686 0.207204 0.380124 0.179765 0.138306 0.181921 0.293386 0.163952 0.172124 0.158363 0.286835 0.258618 0.175110 0.179835 0.323207 0.207587 0.116034 0.198986 0.141495 0.166510 0.083823 0.198707 0.191676 0.177589 0.471608 0.488433 0.137242 0.473182 0.177512 0.135515 0.234137 0.078970 0.187760 0.127058 0.274705 0.186733 0.176201 0.184026 0.175497 0.180598 0.258850 0.222684 0.287189 0.134718 0.357347 0.147800 0.081621 0.141475 0.160976 0.136217 0.177157 0.163543 0.074507 0.195139 0.163903 0.151208 0.257252 0.135302 0.210630 0.199048 0.172643 0.134581 0.326538 0.168542 0.218255 0.213345 0.402367 0.161870 0.172868 0.186656 0.277496 0.176572 0.182804 0.153121 0.173854 0.141785 0.270610 0.124371 0.332625 0.165696 0.174912 0.294549 0.663202 0.173788 0.142750 0.354056 0.214743 0.193227 0.138835 0.161472 0.179402 0.193029 0.163683 0.229626 0.207364 0.165065 0.158220 0.270663 0.235205 0.308129 0.193443 0.357517 0.150463 0.396895 0.158142 0.188802 0.298017 0.188925 0.212147 0.182592 0.391721 0.210146 0.181561 0.207400 0.165564 0.409030 0.112831 0.129705 0.218174 0.219085 0.153774 0.309715 0.187673 0.268278 0.526029 0.179432 0.163431 0.209814 0.247444 0.181863 0.174962 0.205424 0.245689 0.350647 0.164390 0.183456 0.293477 0.191222 0.187340 0.175651 0.221841 0.168925 0.278202 0.124224 0.156544 0.197623 0.288742 0.166431 0.132270 0.195347 0.175023 0.148264 0.231402 0.088204 0.141304 0.209796 0.215809 0.688567 0.181647 0.229407 0.291353 0.156353 0.239085 0.202180 0.110606 0.164781 0.336930 0.156183 0.191091 0.215375 0.465696 0.159590 0.179960 0.185549 0.191759 0.335912 0.174837 0.465222 0.196433 0.208849 0.213079 0.157438 0.162818 0.215156 0.269011 0.277923 0.325993 0.242528 0.275485 0.142588 0.188525 0.528985 0.216005 0.143157 0.377726 0.200411 0.165204 0.160984 0.190777 0.339195 0.186269 0.156106 0.476113 0.162169 0.181695 0.168043 0.181192 0.383688 0.174558 0.179615 0.158333 0.156564 0.201399 0.177787 0.260485 0.343349 0.181572 0.172885 0.565122 0.468059 0.166663 0.171071 0.179475 0.183809 0.157398 0.278194 0.169578 0.184735 0.178629 0.510159 0.245803 0.332893 0.146651 0.160213 0.232935 0.194343 0.214920 0.136034 0.157179 0.151801 0.154282 0.124966 0.195354 0.195994 0.148599 0.147790 0.177780 0.171127 0.241669 0.197120 0.333978 0.191587 0.256244 0.299038 0.205731 0.200753 0.317922 0.625221 0.293658 0.189373 0.222157 0.155340 0.212484 0.264167 0.294104 0.230956 0.274120 0.503530 0.327688 0.232152 0.178464 0.156966 0.294232 0.173176 0.128011 0.203641 0.247604 0.302058 0.276711 0.254728 0.335319 0.170949 0.245193 0.273563 0.226638 0.165823 0.241495 0.201747 0.204808 0.266608 0.220803 0.375338 0.175871 0.209381 0.173289 0.164429 0.317544 0.302171 0.183940 0.204427 0.226132 0.148899 0.187802 0.169802 0.144572 0.191159 0.346864 0.152662 0.196462 0.286415 0.198278 0.248826 0.228946 0.083061 0.178585 0.173201 0.260255 0.238158 0.129965 0.210477 0.088337 0.149077 0.186197 0.159623 0.183055 0.135321 0.196569 0.285545 0.124513 0.170172 0.391899 0.482855 0.228585 0.168955 0.216709 0.443349 0.224362 0.176825 0.158403 0.175288 0.307406 0.270532 0.106960 0.183190 0.224709 0.279424 0.388671 0.202779 0.189533 0.177019 0.173629 0.214387 0.161890 0.259995 0.165352 0.257629 0.206152 0.191838 0.155311 0.490343 0.211791 0.350244 0.174087 0.487494 0.254050 0.192748 0.286331 0.248810 0.177932 0.144245 0.203266 0.166602 0.211986 0.253507 0.145331 0.217891 0.284387 0.203154 0.160744 0.174758 0.626537 0.153160 0.293857 0.352052 0.223887 0.294881 0.555239 0.146552 0.206338 0.144865 0.274219 0.257521 0.197992 0.190489 0.174494 0.333244 0.431025 0.087136 0.394693 0.253657 0.317954 0.120242 0.235402 0.176937 0.190035 0.157829 0.145149 0.163767 0.188885 0.149641 0.156385 0.213313 0.178431 0.253318 0.154565 0.190492 0.051236 0.212865 0.206580 0.200774 0.225813 0.198150 0.178774 0.284118 0.152704 0.227205 0.161743 0.223528 0.191340 0.321606 0.223985 0.217826 0.140208 0.170892 0.173281 0.132066 0.237074 0.159629 0.220747 0.141705 0.253708 0.184232 0.181316 0.172812 0.195943 0.165876 0.231059 0.287425 0.242719 0.234294 0.222534 0.514073 0.180886 0.190489 0.211021 0.146180 0.345266 0.518955 0.401042 0.171596 0.210612 0.186750 0.179368 0.177067 0.278440 0.077144 0.224010 0.173309 0.195260 0.350932 0.358599 0.203208 0.158638 0.088297 0.223616 0.181542 0.133231 0.282759 0.293190 0.177355 0.190108 0.144841 0.325100 0.164906 0.150945 0.214110 0.287508 0.312346 0.190147 0.122349 0.454064 0.173829 0.268115 0.090426 0.184739 0.174700 0.149247 0.196210 0.237261 0.300477 0.178819 0.242708 0.147168 0.170824 0.125742 0.152790 0.138314 0.187519 0.150568 0.303968 0.258693 0.304412 0.328809 0.154531 0.168337 0.211174 0.366540 0.369904 0.311179 0.287226 0.192667 0.172180 0.215015 0.190080 0.183600 0.229907 0.347370 0.169579 0.185440 0.141663 0.134890 0.202097 0.424413 0.196359 0.207303 0.155737 0.203521 0.166434 0.266201 0.323801 0.321931 0.166234 0.155593 0.197358 0.230965 0.409547 0.207750 
1 0.888752 0.704121 0.823920 0.669289 0.365298 0.764768 0.662745 0.482771 0.659394 0.612311 0.690645 0.770131 0.709260 0.392977 1.000000 0.533049 0.645847 0.747752 0.594336 0.802592 0.740907 0.756853 0.781400 0.746892 0.804525 0.843143 0.800456 0.729817 0.814903 0.778013 0.819233 0.840229 0.683679 0.669111 0.830538 0.801510 0.765466 0.777147 0.644471 0.699179 0.814712 0.771287 0.806546 0.738726 0.860844 0.460539 0.779631 0.632104 0.712183 0.384257 0.719120 0.723505 0.748826 0.875784 0.841689 0.584697 0.825666 0.530757 0.557082 0.612562 0.342346 0.811598 0.603677 0.811282 0.794971 0.758101 0.751202 0.704172 0.703271 0.831774 0.758662 0.841357 0.647907 0.762455 0.627344 0.366657 0.660830 0.689367 0.457641 0.739374 0.674909 0.320091 0.772721 0.665149 0.620108 0.789977 0.607461 0.708286 0.688777 0.703559 0.586318 0.881890 0.621193 0.853429 0.791413 0.905766 0.657782 0.611067 0.699663 0.590799 0.705369 0.716469 0.657819 0.670718 0.616215 0.756722 0.573124 0.905913 0.659345 0.642922 0.802223 0.771808 0.651664 0.632505 0.920512 0.850341 0.798688 0.625469 0.707141 0.712379 0.531280 0.696351 0.739705 0.801522 0.667639 0.439395 0.757909 0.716096 0.839285 0.757437 0.920783 0.713759 0.841714 0.705365 0.743178 0.796371 0.691541 0.692409 0.749618 0.718872 0.839803 0.747578 0.709100 0.750070 0.788022 0.524407 0.599162 0.701293 0.822109 0.650707 0.706492 0.809182 0.830527 0.599901 0.682983 0.643924 0.716020 0.747651 0.682347 0.619723 0.827971 0.775711 0.637129 0.691037 0.756141 0.881401 0.759311 0.810934 0.755837 0.803268 0.747808 0.853926 0.490893 0.558846 0.717791 0.866304 0.745193 0.341074 0.744160 0.764097 0.685363 0.736559 0.392186 0.642791 0.851433 0.852619 0.763540 0.679982 0.801427 0.822811 0.674035 0.812123 0.848589 0.429070 0.726837 0.793500 0.648917 0.754655 0.721238 0.813870 0.684638 0.697598 0.762312 0.735564 0.825396 0.776830 0.873621 0.769311 0.680361 0.842469 0.664722 0.599662 0.815624 0.715835 0.799939 0.731021 0.739863 0.871311 0.683155 0.765656 0.607954 0.817799 0.565536 0.926672 0.749211 0.623755 0.644417 0.730512 0.226308 0.606639 0.664654 0.715657 0.659627 0.760528 0.654320 0.712491 0.936240 0.654834 0.825435 0.691160 0.644014 0.705488 0.739930 0.763116 0.801729 0.810009 0.778001 0.365686 0.736844 0.687988 0.756386 0.753526 0.702235 0.620621 0.732032 0.684826 0.752638 0.721140 0.745003 0.779835 0.893925 0.559205 0.706182 0.848708 0.787714 0.805353 0.493093 0.642712 0.608410 0.552753 0.595836 0.695706 0.817138 0.562435 0.686184 0.624529 0.760688 0.734324 0.842017 0.734553 0.720873 0.825835 0.876472 0.845719 0.798732 0.961033 0.636948 0.669164 0.736150 0.753654 0.592611 0.702136 0.685685 0.673741 0.780464 0.843501 0.791818 0.771765 0.705128 0.810889 0.545922 0.811456 0.663629 0.535066 0.829586 0.733156 0.922914 0.749393 0.690897 0.824848 0.748075 0.668285 0.865056 0.770240 0.753270 0.768770 0.763412 0.803998 0.728781 0.836644 0.877836 0.725942 0.799992 0.783953 0.662341 0.803710 0.801603 0.773460 0.598611 0.797440 0.725248 0.672607 0.526506 0.704522 0.689485 0.632116 0.540908 0.825362 0.841281 0.796116 0.790580 0.801624 0.379306 0.767935 0.745460 0.825833 0.762979 0.501944 0.751653 0.409014 0.633140 0.784670 0.662374 0.702333 0.592554 0.840986 0.739077 0.507251 0.686806 0.779243 0.836911 0.851893 0.671138 0.802787 0.849287 0.768115 0.788069 0.658235 0.675033 0.829631 0.371288 0.423333 0.637428 0.694256 0.739299 0.732052 0.695574 0.635212 0.673706 0.600072 0.738726 0.670821 0.719974 0.646235 0.786138 0.730697 0.824186 0.666024 0.928144 0.760632 0.827311 0.689724 0.702067 0.880584 0.816698 0.638451 0.794418 0.667461 0.660502 0.754681 0.703308 0.842679 0.823357 0.683554 0.833303 0.710974 0.837405 0.669772 0.782069 0.526087 0.699281 0.762490 0.663015 0.769910 0.738178 0.654918 0.655504 0.822417 0.653412 0.827152 0.656195 0.719595 0.605630 0.722350 0.813789 0.804187 0.354970 0.877683 0.666218 0.784337 0.464024 0.810942 0.665318 0.771796 0.699367 0.476677 0.732282 0.810376 0.643293 0.724002 0.778883 0.675691 0.771054 0.745457 0.798000 0.193470 0.767821 0.646590 0.679642 0.760786 0.680716 0.752553 0.654158 0.537018 0.700022 0.709226 0.820419 0.714059 0.773005 0.762576 0.877170 0.617670 0.693651 0.754191 0.702216 0.739855 0.600665 0.680022 0.556874 0.720438 0.706769 0.682059 0.657114 0.831221 0.704862 0.826551 0.742247 0.850783 0.834711 0.860923 0.848610 0.694551 0.724902 0.620574 0.489799 0.673903 0.585695 0.707372 0.751853 0.832785 0.668494 0.730317 0.719694 0.878104 0.337126 0.856630 0.763055 0.707139 0.909717 0.933680 0.740490 0.657895 0.416866 0.813317 0.718358 0.647634 0.811259 0.781529 0.643502 0.814564 0.688035 0.753276 0.732737 0.663008 0.719205 0.859896 0.903059 0.794256 0.596164 0.865475 0.635836 0.792632 0.396876 0.821887 0.708429 0.668600 0.685902 0.766934 0.744740 0.741184 0.780253 0.593750 0.586944 0.517250 0.583112 0.522045 0.736575 0.602690 0.720771 0.739595 0.770932 0.843623 0.717089 0.633883 0.719738 0.858068 0.823886 0.825017 0.857089 0.799618 0.698121 0.717250 0.781037 0.683772 0.697306 0.859611 0.654113 0.795286 0.601225 0.666596 0.807096 0.732393 0.653924 0.805140 0.662538 0.712209 0.644776 0.785617 0.921472 0.786429 0.698694 0.688638 0.736787 0.692854 0.749240 0.654618 
1 0.552525 0.626928 0.624936 0.614031 0.291725 0.665493 0.705633 0.935999 0.229903 0.334076 0.532291 0.591311 0.445299 0.129266 0.533049 1.000000 0.366097 0.684614 0.679547 0.590680 0.411503 0.579573 0.440692 0.560906 0.401719 0.614936 0.601339 0.627611 0.455584 0.549436 0.543555 0.459400 0.725945 0.531295 0.568309 0.603984 0.629612 0.562648 0.564964 0.376176 0.571797 0.574605 0.506953 0.272480 0.683203 0.294231 0.709355 0.608803 0.650872 0.682873 0.551906 0.747443 0.694023 0.334635 0.456251 0.720359 0.419965 0.311356 0.345836 0.507520 0.636019 0.672046 0.699512 0.609175 0.720127 0.628610 0.469819 0.447597 0.639317 0.512245 0.644072 0.615649 0.482472 0.472312 0.562552 0.563724 0.630888 0.610392 0.803798 0.653411 0.776150 0.615786 0.600328 0.600155 0.374438 0.575681 0.457518 0.621332 0.501545 0.628665 0.689221 0.581032 0.487774 0.570667 0.528845 0.551798 0.649678 0.699544 0.751710 0.319733 0.507100 0.651498 0.452090 0.610009 0.650922 0.620884 0.326906 0.657694 0.681760 0.496165 0.506528 0.405358 0.538785 0.735155 0.636168 0.454002 0.658943 0.822560 0.717491 0.613697 0.314493 0.632547 0.576830 0.480598 0.590882 0.552943 0.569729 0.615101 0.486529 0.468206 0.575128 0.722632 0.511313 0.603497 0.650813 0.651519 0.588005 0.640229 0.566287 0.505158 0.549641 0.549620 0.713341 0.709863 0.534961 0.398154 0.512904 0.512653 0.502941 0.624926 0.433635 0.713149 0.431720 0.277497 0.460368 0.389938 0.731122 0.657186 0.607734 0.380415 0.459808 0.541885 0.400630 0.666768 0.514556 0.623013 0.621214 0.704355 0.729021 0.544994 0.621771 0.634226 0.869781 0.546388 0.664239 0.484679 0.647452 0.175194 0.542886 0.566620 0.613584 0.621679 0.467048 0.751169 0.635502 0.524229 0.299575 0.342283 0.564961 0.519473 0.694038 0.563416 0.683120 0.756711 0.735558 0.427823 0.698107 0.699519 0.571264 0.545683 0.537324 0.537302 0.618072 0.627166 0.526134 0.634100 0.374505 0.388305 0.622820 0.457954 0.689902 0.363972 0.360089 0.547039 0.526935 0.440993 0.614862 0.642969 0.575580 0.702269 0.327933 0.402009 0.960947 0.537788 0.651504 0.536376 0.587695 0.612392 0.077172 0.457606 0.517215 0.366231 0.543396 0.702060 0.628677 0.565567 0.437955 0.376612 0.521615 0.574339 0.635905 0.614947 0.744975 0.640392 0.487943 0.423645 0.692766 0.143059 0.457127 0.520821 0.809578 0.570242 0.579107 0.572347 0.596863 0.603537 0.671112 0.630983 0.461878 0.425019 0.543859 0.906347 0.628087 0.485809 0.735168 0.605376 0.807400 0.517200 0.699428 0.881827 0.427817 0.619017 0.608736 0.457445 0.607208 0.488965 0.731765 0.621451 0.595804 0.587856 0.594681 0.569391 0.533246 0.522860 0.564885 0.562388 0.262304 0.388459 0.735170 0.562815 0.465938 0.601895 0.417665 0.558964 0.548263 0.625786 0.437035 0.459801 0.500007 0.595008 0.779405 0.619449 0.507349 0.412217 0.584868 0.516101 0.571985 0.565727 0.482692 0.563978 0.658241 0.512519 0.576987 0.784146 0.520228 0.636940 0.584032 0.564842 0.564164 0.448546 0.671449 0.593793 0.602959 0.434154 0.551469 0.521975 0.587504 0.586978 0.430248 0.622687 0.511608 0.705594 0.718305 0.575268 0.668489 0.350779 0.824892 0.649940 0.499125 0.507112 0.612334 0.596645 0.460948 0.587540 0.618590 0.462914 0.717893 0.911000 0.683413 0.432335 0.592246 0.584091 0.519660 0.688894 0.587617 0.502211 0.588390 0.774649 0.523726 0.372489 0.455621 0.543757 0.313473 0.482712 0.509227 0.740364 0.691272 0.621054 0.549501 0.382126 0.148511 0.303012 0.619109 0.614009 0.594869 0.339590 0.534085 0.601833 0.537765 0.341270 0.568272 0.584552 0.625431 0.585615 0.583584 0.699683 0.622564 0.401402 0.428191 0.630483 0.579886 0.543817 0.467934 0.650433 0.585783 0.453433 0.636552 0.535982 0.661730 0.496538 0.726657 0.658107 0.490821 0.599069 0.643407 0.644512 0.663772 0.667206 0.483276 0.232915 0.488501 0.552930 0.372350 0.557681 0.555867 0.298472 0.584140 0.521448 0.631363 0.630821 0.396464 0.646072 0.512866 0.667340 0.484102 0.397275 0.611747 0.505978 0.354966 0.497962 0.881282 0.637664 0.611634 0.606595 0.601085 0.794378 0.480434 0.642975 0.587252 0.575579 0.330424 0.650818 0.650957 0.682807 0.740254 0.103236 0.626733 0.458707 0.578537 0.583908 0.643408 0.652995 0.520621 0.654310 0.681481 0.538510 0.618623 0.654730 0.357564 0.383984 0.599054 0.676417 0.583511 0.591439 0.473641 0.658530 0.706330 0.572296 0.961631 0.452924 0.453762 0.519517 0.582887 0.523158 0.712357 0.434692 0.463382 0.633113 0.562241 0.445265 0.470641 0.447833 0.730577 0.475830 0.783843 0.443528 0.353332 0.297471 0.661624 0.417306 0.628624 0.487566 0.606673 0.575706 0.639581 0.499009 0.715078 0.636009 0.439114 0.523407 0.503901 0.593047 0.457889 0.683132 0.528447 0.603023 0.401810 0.618544 0.693324 0.540964 0.579800 0.561330 0.622857 0.715391 0.723699 0.590728 0.432398 0.546249 0.689065 0.384602 0.574151 0.530941 0.673485 0.669072 0.731364 0.697189 0.614713 0.607016 0.557148 0.662493 0.676688 0.543607 0.475203 0.995564 0.579431 0.931996 0.494968 0.518496 0.438578 0.378508 0.508466 0.584218 0.474621 0.499740 0.555034 0.385684 0.384961 0.620187 0.412878 0.323181 0.587447 0.623422 0.473574 0.660308 0.632677 0.564688 0.545053 0.589717 0.519958 0.660021 0.590834 0.394680 0.575191 0.750279 0.578745 0.723150 0.567200 0.628731 0.571429 0.562922 0.673114 0.473996 0.684161 0.672700 0.381372 0.623584 
1 0.703954 0.712316 0.451738 0.730920 0.427348 0.565188 0.733691 0.335375 0.562068 0.239126 0.660738 0.532202 0.370888 0.306982 0.645847 0.366097 1.000000 0.571349 0.752016 0.879472 0.950042 0.559256 0.543074 0.652926 0.639318 0.647310 0.599589 0.689733 0.422376 0.637451 0.673015 0.836317 0.616966 0.487683 0.596484 0.717328 0.512875 0.664419 0.840512 0.704156 0.730060 0.635149 0.555729 0.639810 0.517816 0.525217 0.609389 0.699679 0.752385 0.171059 0.623070 0.637526 0.643998 0.641668 0.772287 0.542812 0.724296 0.912496 0.485578 0.901626 0.182660 0.566033 0.488374 0.752570 0.573562 0.704198 0.792895 0.637102 0.598680 0.760954 0.788077 0.778892 0.488167 0.823641 0.763777 0.434930 0.550150 0.792022 0.441848 0.677934 0.541359 0.174159 0.700610 0.681095 0.635757 0.861001 0.553890 0.846506 0.517795 0.676081 0.479711 0.799416 0.777020 0.481201 0.694314 0.789575 0.723976 0.573541 0.677202 0.975793 0.606663 0.556490 0.558310 0.691189 0.652342 0.779363 0.508112 0.758191 0.759679 0.827224 0.791139 0.619467 0.786307 0.609206 0.708281 0.535949 0.625626 0.568327 0.682157 0.633029 0.878297 0.744322 0.856420 0.443059 0.661755 0.746169 0.919276 0.828965 0.869489 0.531780 0.704896 0.504897 0.833015 0.714056 0.628166 0.785024 0.791072 0.763803 0.662102 0.830203 0.492142 0.796430 0.760671 0.510349 0.793063 0.357131 0.598690 0.714420 0.502727 0.649990 0.940398 0.540225 0.651979 0.831986 0.523832 0.771257 0.655798 0.711592 0.722345 0.450959 0.744077 0.780636 0.940580 0.719254 0.662677 0.733392 0.728931 0.617630 0.634514 0.733111 0.589344 0.803917 0.452976 0.852133 0.738769 0.709799 0.583330 0.766259 0.627797 0.645749 0.508801 0.809423 0.513773 0.534769 0.582306 0.626668 0.521403 0.748796 0.733846 0.830194 0.525949 0.730237 0.552366 0.335300 0.527216 0.885853 0.547606 0.633088 0.836263 0.758675 0.722096 0.693409 0.710890 0.621664 0.769714 0.669380 0.618114 0.555315 0.805671 0.668482 0.673354 0.865406 0.564430 0.891964 0.751850 0.678170 0.852910 0.778004 0.627400 0.633111 0.669307 0.504516 0.333148 0.627626 0.673625 0.776928 0.669077 0.752800 0.232756 0.866906 0.681040 0.821716 0.711499 0.655377 0.729706 0.645471 0.679710 0.779457 0.603738 0.532211 0.700107 0.812029 0.553741 0.607346 0.919418 0.475259 0.507829 0.613287 0.719744 0.719730 0.506081 0.621937 0.665315 0.792277 0.486580 0.801571 0.756903 0.698130 0.593639 0.530831 0.675686 0.393164 0.764817 0.594210 0.613687 0.713637 0.417590 0.793538 0.531238 0.377661 0.654600 0.703181 0.558217 0.810866 0.423315 0.895813 0.627044 0.773711 0.504059 0.676487 0.679568 0.702894 0.723689 0.524369 0.565414 0.660421 0.741454 0.975554 0.597206 0.842526 0.824456 0.852425 0.875048 0.891374 0.407491 0.790614 0.802992 0.874067 0.564094 0.441749 0.391205 0.820299 0.782600 0.648251 0.523854 0.910455 0.559510 0.684611 0.695866 0.856906 0.637851 0.931591 0.722163 0.679578 0.686142 0.822632 0.601844 0.578226 0.882247 0.397803 0.717636 0.762249 0.707564 0.508297 0.792262 0.713667 0.893640 0.486037 0.902538 0.735727 0.463062 0.711235 0.398234 0.404119 0.657899 0.916904 0.402934 0.605160 0.730770 0.573714 0.713826 0.739485 0.565105 0.645269 0.529499 0.761285 0.696489 0.350254 0.646100 0.580617 0.671788 0.626929 0.705304 0.678390 0.683901 0.487676 0.822208 0.361134 0.599134 0.796727 0.720398 0.477659 0.638491 0.532955 0.842206 0.773469 0.578151 0.601968 0.696559 0.813572 0.449563 0.272663 0.798280 0.838473 0.866282 0.608264 0.704301 0.848761 0.658660 0.868349 0.818449 0.614378 0.658662 0.614313 0.731415 0.609529 0.761762 0.716261 0.717871 0.769512 0.846348 0.640637 0.653821 0.645357 0.622044 0.606201 0.703796 0.797180 0.527799 0.689793 0.604905 0.463852 0.843447 0.614893 0.557727 0.872667 0.592048 0.547317 0.414396 0.717679 0.786711 0.899903 0.845201 0.717687 0.870725 0.740567 0.658866 0.817379 0.508488 0.752550 0.981505 0.709629 0.899262 0.734096 0.817919 0.815046 0.187966 0.791129 0.942643 0.849055 0.337788 0.751800 0.710997 0.582746 0.575269 0.434739 0.597070 0.604089 0.555515 0.644346 0.689747 0.765170 0.802363 0.546032 0.671282 0.337638 0.696614 0.904229 0.845298 0.773623 0.626484 0.624254 0.918643 0.248034 0.837862 0.464786 0.491365 0.744589 0.678514 0.415612 0.539237 0.524429 0.719544 0.693013 0.452322 0.638812 0.616266 0.886205 0.343505 0.873570 0.874698 0.785847 0.807118 0.533539 0.580557 0.637380 0.920626 0.654174 0.665220 0.617847 0.840453 0.830663 0.686845 0.876105 0.445875 0.952160 0.822788 0.728368 0.655446 0.371506 0.825498 0.772795 0.759643 0.680815 0.176714 0.430645 0.569259 0.738758 0.543590 0.754070 0.713557 0.795234 0.557822 0.720349 0.813890 0.510250 0.796842 0.779494 0.691767 0.433676 0.527667 0.668190 0.415891 0.589800 0.661256 0.744222 0.659061 0.583219 0.411612 0.502841 0.693196 0.867625 0.174627 0.546940 0.601031 0.596726 0.608450 0.695390 0.855546 0.591350 0.753462 0.713957 0.867672 0.372298 0.694684 0.398489 0.607812 0.397881 0.926752 0.892842 0.813823 0.854241 0.583352 0.789035 0.828382 0.717349 0.698649 0.793042 0.779526 0.631905 0.717428 0.812951 0.462963 0.747787 0.840643 0.705808 0.835491 0.473366 0.633515 0.480610 0.550474 0.807183 0.865474 0.666062 0.662875 0.666105 0.837815 0.713711 0.794436 0.869639 0.613048 0.553596 0.754855 0.770440 0.816969 0.796609 
1 0.765443 0.832137 0.813780 0.834628 0.247413 0.982118 0.806763 0.667736 0.333513 0.612297 0.933810 0.852944 0.610891 0.164880 0.747752 0.684614 0.571349 1.000000 0.643371 0.806442 0.661606 0.910907 0.756120 0.872874 0.716958 0.869670 0.901176 0.828233 0.725183 0.949857 0.768515 0.654543 0.902611 0.932594 0.841142 0.712877 0.929249 0.796364 0.752335 0.473485 0.774743 0.887459 0.882545 0.545440 0.914156 0.342316 0.851550 0.818567 0.866404 0.483193 0.838717 0.838431 0.923997 0.566902 0.591958 0.825801 0.590509 0.481065 0.468275 0.676480 0.447347 0.965598 0.857474 0.736492 0.969026 0.920435 0.737874 0.725460 0.856789 0.852500 0.813312 0.811964 0.795891 0.785340 0.811821 0.624424 0.926296 0.859052 0.567591 0.882069 0.859658 0.440708 0.855951 0.805767 0.768824 0.803933 0.655417 0.846175 0.713976 0.876638 0.832264 0.886060 0.727158 0.815802 0.806471 0.796524 0.851166 0.779938 0.855710 0.542199 0.666392 0.851682 0.829878 0.866254 0.802947 0.724431 0.770886 0.826087 0.836656 0.805199 0.746760 0.515162 0.804869 0.931000 0.747564 0.770398 0.967749 0.883213 0.895050 0.919966 0.450393 0.838561 0.830759 0.746976 0.881400 0.503403 0.783953 0.770783 0.802270 0.709250 0.816171 0.810107 0.683203 0.851339 0.860467 0.847376 0.797142 0.790046 0.843839 0.729254 0.835016 0.860683 0.835097 0.951980 0.707911 0.574632 0.790790 0.600627 0.767189 0.891502 0.630091 0.938016 0.651013 0.425583 0.720680 0.652946 0.827636 0.760092 0.887314 0.518628 0.793743 0.788375 0.626065 0.872906 0.825884 0.862386 0.852112 0.927628 0.962827 0.911347 0.986661 0.871080 0.576802 0.657460 0.858271 0.675715 0.959120 0.361693 0.831802 0.834396 0.963077 0.787230 0.657346 0.945305 0.937666 0.702246 0.402978 0.569911 0.809329 0.806129 0.917713 0.782068 0.924072 0.513962 0.892844 0.689958 0.880872 0.872544 0.706706 0.711882 0.784485 0.858060 0.805237 0.883831 0.738573 0.897827 0.547860 0.777740 0.820097 0.745979 0.868957 0.592243 0.661666 0.724616 0.831126 0.593426 0.776976 0.870803 0.753677 0.942876 0.392968 0.651863 0.681345 0.654674 0.843330 0.823913 0.878766 0.703612 0.089711 0.722259 0.825109 0.567691 0.809606 0.956346 0.854689 0.806435 0.693032 0.630022 0.806670 0.830090 0.845520 0.843424 0.893124 0.662942 0.729459 0.636318 0.954249 0.244079 0.641811 0.870047 0.934591 0.925258 0.896547 0.783720 0.715147 0.778257 0.796238 0.887802 0.527599 0.568882 0.765767 0.612378 0.847416 0.756833 0.959758 0.810397 0.534535 0.630314 0.840235 0.630590 0.635226 0.818190 0.928708 0.676270 0.844857 0.654349 0.928040 0.807296 0.822206 0.717784 0.837824 0.848195 0.898872 0.878746 0.869433 0.791381 0.412135 0.602596 0.891672 0.803265 0.760288 0.740775 0.574932 0.612052 0.637343 0.786636 0.617270 0.727251 0.739818 0.796493 0.526033 0.769938 0.799240 0.763959 0.889165 0.773531 0.792536 0.800164 0.595253 0.731230 0.872636 0.693480 0.842871 0.872846 0.731642 0.873059 0.903166 0.838845 0.770640 0.705663 0.836884 0.875364 0.850621 0.715023 0.825369 0.773889 0.745361 0.846198 0.714185 0.883622 0.644923 0.883126 0.512352 0.899768 0.850656 0.530629 0.538981 0.956933 0.718759 0.825266 0.850783 0.830149 0.604641 0.965221 0.851133 0.766541 0.773784 0.650394 0.885761 0.636031 0.911775 0.951504 0.803935 0.861615 0.859293 0.849162 0.633435 0.526900 0.744263 0.535276 0.599215 0.771742 0.626598 0.711542 0.742797 0.861836 0.985281 0.825588 0.894266 0.739582 0.197008 0.349356 0.789725 0.767940 0.661953 0.520814 0.841627 0.740899 0.802934 0.588349 0.768543 0.810810 0.744069 0.681724 0.830543 0.850759 0.872169 0.751490 0.664390 0.805424 0.761793 0.816251 0.618970 0.914354 0.854266 0.495893 0.720421 0.735115 0.912745 0.719336 0.966284 0.857484 0.794039 0.894174 0.876199 0.710534 0.936218 0.860480 0.658817 0.311877 0.797649 0.771250 0.557156 0.828415 0.695377 0.492653 0.736779 0.804907 0.833524 0.845963 0.648143 0.861537 0.660614 0.872982 0.722150 0.617678 0.433301 0.678741 0.634701 0.780901 0.630988 0.894844 0.862916 0.914811 0.749787 0.566240 0.787173 0.944551 0.837079 0.916604 0.651674 0.851388 0.867742 0.890253 0.951402 0.127243 0.860420 0.702107 0.746030 0.855226 0.834714 0.900687 0.702567 0.429927 0.794398 0.715556 0.708274 0.886687 0.535368 0.544725 0.816853 0.855957 0.769076 0.891151 0.811899 0.798190 0.822769 0.727767 0.682621 0.673947 0.698189 0.745059 0.789788 0.901782 0.960335 0.703169 0.683723 0.926447 0.833199 0.717881 0.663933 0.758965 0.900909 0.748012 0.534437 0.608386 0.450003 0.414186 0.943209 0.638270 0.801323 0.821364 0.840975 0.737368 0.455232 0.731282 0.982995 0.877234 0.636885 0.728709 0.863998 0.840356 0.574469 0.851390 0.796739 0.938463 0.697803 0.760468 0.738088 0.803937 0.815660 0.744420 0.850749 0.900856 0.877706 0.844632 0.690339 0.890344 0.869976 0.635893 0.804004 0.823805 0.483515 0.902284 0.929491 0.868760 0.812765 0.906444 0.738025 0.851053 0.826889 0.772093 0.592263 0.678560 0.632580 0.659031 0.846637 0.610079 0.646558 0.615904 0.704703 0.817504 0.715995 0.855824 0.828198 0.663502 0.536474 0.869300 0.654298 0.661350 0.835329 0.823135 0.787236 0.838644 0.810970 0.804631 0.763760 0.872988 0.717745 0.950715 0.889462 0.534037 0.774376 0.928337 0.860691 0.823464 0.797347 0.820952 0.822103 0.765811 0.930648 0.871004 0.841593 0.859486 0.595506 0.678416 
-1 0.689969 0.790850 0.490717 0.792457 0.346204 0.636938 0.882466 0.653158 0.420410 0.246708 0.639505 0.545687 0.332284 0.209781 0.594336 0.679547 0.752016 0.643371 1.000000 0.839642 0.693950 0.580070 0.487389 0.660705 0.537764 0.680744 0.638852 0.704087 0.422513 0.609375 0.682790 0.647282 0.740111 0.499529 0.601385 0.674270 0.548420 0.655626 0.854260 0.538565 0.745819 0.596081 0.548691 0.408963 0.605761 0.396569 0.700826 0.732075 0.822034 0.344266 0.599503 0.766984 0.730934 0.478517 0.633064 0.717903 0.627790 0.657265 0.371857 0.895768 0.364460 0.634973 0.596303 0.741295 0.681267 0.761718 0.669593 0.552069 0.673057 0.691262 0.759275 0.772079 0.460178 0.677794 0.777223 0.614279 0.608707 0.821180 0.781261 0.754565 0.743286 0.362374 0.660118 0.763370 0.527392 0.772164 0.596184 0.870833 0.546832 0.760780 0.623554 0.717771 0.764737 0.547398 0.605886 0.732782 0.846521 0.723757 0.817280 0.724136 0.541259 0.662264 0.516337 0.739774 0.679915 0.760559 0.405293 0.809668 0.875334 0.774173 0.739289 0.511266 0.795705 0.728322 0.721528 0.493695 0.690977 0.721719 0.782865 0.667519 0.678786 0.821919 0.814115 0.486161 0.696961 0.910483 0.858825 0.888590 0.735807 0.511697 0.671521 0.555830 0.760810 0.742785 0.657417 0.859747 0.776243 0.805091 0.628926 0.746501 0.537936 0.780451 0.884313 0.616004 0.744009 0.372703 0.650385 0.614928 0.541401 0.743480 0.789154 0.630939 0.488629 0.534619 0.537822 0.667611 0.740301 0.722148 0.756805 0.405999 0.664860 0.778116 0.773170 0.800238 0.590176 0.681449 0.783190 0.659188 0.714355 0.649594 0.634570 0.764203 0.757425 0.859063 0.817423 0.615801 0.635027 0.498011 0.657352 0.586029 0.578185 0.787884 0.574521 0.677210 0.638912 0.602628 0.399595 0.510594 0.673313 0.726416 0.649028 0.725974 0.621925 0.584452 0.696889 0.701678 0.684911 0.682162 0.772222 0.733287 0.652071 0.687632 0.718788 0.685363 0.738988 0.707089 0.496673 0.487385 0.852254 0.611094 0.799103 0.731499 0.503888 0.848254 0.684486 0.563805 0.844973 0.769965 0.582940 0.738125 0.479849 0.444303 0.647122 0.615911 0.698994 0.794030 0.718588 0.803400 0.107288 0.820015 0.611534 0.647175 0.677958 0.725736 0.791762 0.647726 0.553789 0.616010 0.534454 0.554118 0.803409 0.808029 0.675323 0.589578 0.793815 0.395665 0.600436 0.341641 0.618789 0.706255 0.663233 0.624299 0.676704 0.854694 0.478787 0.829591 0.841890 0.787556 0.537958 0.424724 0.659835 0.661835 0.777511 0.613667 0.736933 0.662187 0.666030 0.726075 0.703904 0.692140 0.541046 0.790940 0.605347 0.759027 0.507379 0.818720 0.747456 0.790613 0.530380 0.617007 0.718596 0.684242 0.644307 0.533626 0.607809 0.617367 0.470839 0.708270 0.719137 0.836578 0.733261 0.833586 0.645784 0.882661 0.529180 0.759494 0.669609 0.701290 0.536639 0.472474 0.627789 0.832929 0.771238 0.580494 0.570132 0.852300 0.576306 0.700883 0.561691 0.739808 0.735841 0.830452 0.687930 0.780494 0.601823 0.841319 0.616356 0.594391 0.886329 0.428839 0.717400 0.797797 0.764140 0.440468 0.814360 0.689024 0.829273 0.542696 0.790415 0.792587 0.425314 0.846233 0.688193 0.464526 0.758293 0.730346 0.665107 0.656150 0.595928 0.555743 0.704993 0.713620 0.636002 0.643712 0.592220 0.664519 0.784769 0.667925 0.733436 0.613190 0.705766 0.631855 0.727310 0.743287 0.683940 0.481590 0.790462 0.622904 0.619921 0.585363 0.604017 0.545026 0.522292 0.539183 0.715149 0.866725 0.638781 0.695691 0.667831 0.634550 0.226658 0.238636 0.825010 0.908841 0.841630 0.477172 0.675759 0.880227 0.677467 0.611037 0.744851 0.685484 0.634052 0.591126 0.743550 0.740622 0.747755 0.621843 0.589464 0.725645 0.818563 0.642260 0.576615 0.663910 0.586177 0.484831 0.714518 0.838865 0.606145 0.689243 0.736726 0.584664 0.749595 0.664013 0.653039 0.918422 0.658160 0.652760 0.379970 0.470501 0.676371 0.808325 0.573146 0.712322 0.826206 0.516933 0.634997 0.739803 0.568276 0.792909 0.755600 0.726971 0.871994 0.800314 0.684667 0.654987 0.373100 0.745816 0.720216 0.768997 0.659750 0.746296 0.715550 0.635842 0.575021 0.774351 0.580653 0.629005 0.636168 0.594607 0.529053 0.805333 0.841655 0.564555 0.773234 0.196571 0.690133 0.812262 0.848565 0.774429 0.686353 0.658280 0.851186 0.440382 0.903935 0.533108 0.583329 0.786729 0.496120 0.426229 0.545863 0.634235 0.717419 0.728301 0.384599 0.705514 0.773810 0.861294 0.666639 0.723724 0.754292 0.808039 0.859735 0.534952 0.702209 0.621518 0.741308 0.644026 0.684880 0.584530 0.711824 0.756652 0.808987 0.795561 0.735813 0.818519 0.634630 0.508803 0.720696 0.371262 0.834411 0.724372 0.840126 0.606335 0.363281 0.473085 0.662114 0.744062 0.536053 0.632867 0.641083 0.841186 0.599831 0.743078 0.818042 0.560467 0.653839 0.751130 0.745865 0.475416 0.595328 0.681926 0.519239 0.683620 0.799354 0.737091 0.526356 0.588508 0.545696 0.402000 0.748811 0.781684 0.354937 0.588740 0.742509 0.701283 0.673031 0.720940 0.798003 0.648224 0.762243 0.689016 0.786151 0.690386 0.681188 0.726097 0.604451 0.479585 0.712357 0.629295 0.707005 0.767394 0.538640 0.733553 0.795259 0.547393 0.534147 0.799963 0.686162 0.452584 0.769896 0.800097 0.481080 0.819342 0.860810 0.695931 0.874775 0.540433 0.705628 0.556524 0.618907 0.663049 0.866937 0.753257 0.656090 0.731696 0.835939 0.804572 0.756650 0.862242 0.711179 0.513995 0.832998 0.851768 0.564310 0.935915 
